{"name":"cnn","nnCache":{"cnn":{"type":"sequence","name":"sequenceNetwork","networks":[{"type":"convolution","name":"convolution","inDepth":1,"outDepth":16,"filterWidth":3,"filterHeight":3,"strideX":1,"strideY":1,"padX":1,"padY":1,"filters":[0.008534404890339293,-0.001158999489841379,-0.0012266267563571358,0.010623583917659312,0.007992825213025903,-0.0023393314175963135,0.012669618365867738,-0.0044509399821387715,-0.00011364738418180634,0.007207085090181521,-0.007066390421537524,-0.004647228871219248,0.0058401914677101135,-0.0030138040977123882,0.0039911304861040475,-0.0014590308466043962,0.0033013011546882244,-0.012342045841474813,-0.007417725206081267,-0.011123948210598684,-0.005033734378754822,0.011039029477670971,0.0056902232341245924,0.008184912596175422,-0.004673413259616495,-0.0025138272306021348,-0.0014341930218900786,0.019507799045624663,-0.024465986999057502,0.0049881614527730045,-0.016275244244589916,-0.02806636189531316,0.00029669359306728094,0.02292617851894359,-0.000793898858959522,0.03855248174358087,-0.0007716358571437361,-0.006272656634803826,-0.003352029825007272,0.013208459271387304,-0.0005876609603673299,0.006527589287144206,-0.0012742162349818709,-0.022024755048017503,0.00390919915572202,0.0009995349878690748,0.010290171545555653,0.005393414306954673,-0.0099224404032328,0.005264286902292409,0.006822529110817965,0.0003594717466852573,-0.010769374735819359,-0.004246816100954005,-0.007380307393662803,-0.02825821085876807,0.0027522873024304864,-0.01237904674679499,-0.022169836962686255,-0.013013190826621652,-0.015268229106940534,-0.008497364747809573,-0.0018413114388195358,-0.0033745375723830966,0.004756673260392795,0.009850261734006924,-0.003857138325246796,-0.015538599881593604,-0.002764249702764236,-0.020250637734425207,-0.024380373227572305,-0.02798417088552899,0.02449893418555236,-0.012671154032689532,-0.008179621298478696,-0.006968058858160614,-0.03450571476709228,-0.0005971792090454386,0.0026336100288138083,-0.005982911187695225,0.025348520486553085,0.004806158549298186,-0.00494895963216751,0.008813411676225435,-0.012666773265836534,-0.01996371573662302,0.0001953138987946315,-0.0033800543303934174,0.0017410517964108832,0.002151938051932981,0.0010686804493181454,-0.017664674604614197,-0.011479146177162013,-0.010300339550544569,-0.024583234695999715,-0.00482785802108144,-0.006124128170682705,-0.01499209632281381,-0.003164614865042983,-0.0029454380181338324,0.0009043434958087897,-0.002678347397749532,-0.007385350993641844,-0.024473831829336202,-0.008096339394108492,-0.002739106426038373,-0.00024846984607500934,0.01082688918193931,0.07130651684772452,0.08481761141412379,-0.01907322247000935,0.11051593927183614,0.0846989998507229,-0.08149450082401476,0.034496842154652214,0.0671784516778272,-0.13840226665523994,-0.00522271573819712,0.0016774202266068752,-0.006015972966196431,0.003547227139117002,0.008365763450709251,0.0080885020039047,-0.0010890367803304778,0.013345580369028696,0.019131784970905154,0.19035912220271872,0.10413320303594342,-0.05264317747433242,0.1938836030725235,0.17657502205983575,0.0958937301475922,0.021230929571434746,0.2053771410704119,0.28220504980309635,-0.006822506639157715,-0.009111249779435128,0.0007801521350937275,0.002296787136695638,-0.005399353181923896,-0.0037613923937089982,-0.005136139602387668,0.01140556094365203,-0.007410997298827287],"biases":[-0.07886690971871405,-0.05294989886204749,-0.06764255356319335,-0.13642498083787427,-0.1214911023662936,-0.08849109452836777,-0.11451881409344301,-0.1132896185472876,-0.19320197941466816,-0.06287304722884642,-0.15257276913092163,-0.07516209469473083,-0.01992965955013426,-0.11356096644746827,0.030471130738281078,-0.17191584179279554]},{"type":"relu"},{"type":"linear","name":"linear","inSize":12544,"outSize":10,"weights":[-0.000007395805872739539,0.000007863799148610878,0.000014035425661695623,-0.000002969616191790083,0.000004338888011734431,0.0000027378994233087814,0.000006804790334000709,-0.000005683852471486358,0.000010273797602669849,0.000008360514754546549,-0.0000037671433737675974,-0.000004887687516779551,0.00001400163697427883,-1.794870153335114e-7,-0.000014621437701597083,-0.0000013971918785707703,0.000011064230815249254,0.000012172633086219624,0.00001081110143845222,-0.00000896927474155415,0.000005926454028154062,-0.0000060434832689274694,0.000005975866887311115,0.000007369145085806074,0.000006977611874855599,-0.000010416791690920564,-0.000006941305766955708,0.000002783487140630624,-0.000010205568336821684,0.000005691152948496929,-0.0000067698002241038114,-0.0000039158849708354,0.000008228463367205542,-2.9658645665661787e-7,0.000004288650150700155,0.00000452241944271613,0.000012626688333049109,-0.000002436988424966781,-0.0000032005853960857687,0.0000017777717079526568,-0.000009696103033291443,0.0000012626787154882044,-7.076179879311922e-7,0.000012591404338485998,-0.0000039176214076886994,-0.0000019565701497342332,0.000012924343461230689,-0.000005915766287529979,0.0000013555393016690632,-0.0000015307303879119102,0.0000052077361099338925,0.000010659597579716488,0.000003088388724140419,-5.903570771031399e-7,-0.000006152807322288056,-0.0000022065055274998517,0.000010145371693307413,0.000001975191216396954,0.000007167683621047548,0.000004147100324799792,0.00001172527280813308,-0.000002943767067997315,0.000007479914931063611,-0.000008710162420834653,-0.0000013589596914672223,0.000005611432027990398,-0.000005173302132874481,0.000006214401503182353,0.000003680136886702419,0.000018563440902001576,0.000007290256854680287,-0.000007484436135797251,0.00000491213085604214,0.000008167042516263086,-3.483897327856104e-7,0.000012029162795798124,0.000012235604617931563,-0.0000016579071042211167,-0.0000021067911222885495,-0.0000039532606634800695,-0.0000014984730261862908,-0.000007639114942058974,-0.000008984161112003735,-0.0000031121984575385917,-0.000009892654261086503,-0.000011970628866518754,0.000004253680290085333,-0.000009375126512143432,-0.000004607689767260266,-0.000011285301101575938,0.000006514972029046234,-0.0000013996572785836395,-0.0000023419447866350337,-0.000004368040397272105,-0.000005971585598376864,-0.00001032952198404903,-0.000003049886923995751,-0.00001511974971855324,-0.0000013546203096824485,-0.000008724244807143832,0.000010950675519678394,-0.000010217881621308754,-0.000005044251471794029,0.000009351603766269903,0.000012704038912054025,-0.000009316442035389598,-0.000013604556865583382,-0.0000029917845349333557,-9.647889315560943e-7,7.217425307391293e-7,-0.000010617554772608495,-0.0000011390465237852113,0.000009355993355768169,-0.000007815131950310598,-0.000006128090335273317,-0.000006079459854909066,0.000003958716507653441,-0.0000042747604630415186,0.0000035136335246728277,-0.000002810190452632075,0.00000818283476088703,-0.000013704315035288068,-0.00001120596215198939,0.000012677367123232678,-0.000001171051728571317,-0.000002315692425126105,0.0000018355493526570328,0.000007685743717686059,8.022129460815032e-7,-0.0000015195128431743921,0.0000018853751490607587,-0.000010846519328322688,0.00001400114268045534,0.000002374982117776618,0.0000016145570897885771,0.000006282177011558836,0.0000036406968054921747,0.00001589212389924503,-0.000005482660484708131,0.000004875046657255053,-0.0000014855929809730166,-0.0000027018589421569364,0.000003273943559480971,-0.0000023929756574273386,0.000008766500992585833,0.0000020336473685483825,-0.0000020361766092296885,-0.0000016412200796571836,-0.000007006316896485947,0.0000021438845295040486,-0.000001578099320664314,0.000007899464157274038,0.000011378649807894162,0.000010161175101549713,0.000005433896616281963,0.000008899371493531382,0.000005282440975320022,-0.000005860376098378089,0.000012055571559612379,0.000002369974100006296,0.0000037405900766433815,0.00000848854595727875,-0.0000040179513186425864,-0.000001986753115038542,-0.000006428600830945817,-0.000006416826463960212,0.0000101473776489556,0.000005521928808352767,-0.000019182346903160678,-0.0000015810222029036457,-0.0000031253862429135446,-0.000005798452031614518,0.000017378277853571723,0.000003924508986629792,0.000010135528248351393,-0.000005495452689179263,0.0000016790343398457695,-0.00001676030284569627,-2.488887345546027e-7,-0.000001836892360398578,-0.0000020984364952655525,-0.000008886227159717593,0.00002040906134934019,0.0000030315529510289965,-0.000010513371680434501,0.000005832498122295145,-0.000013377471933277968,-0.000008535600023451623,7.477335424314456e-7,-0.0000018548909656822746,0.000010012210929779233,-3.5012014358979836e-7,-0.00000529880947736965,-0.000001755445910689636,-0.000003161435732901015,-0.000003551355534851627,0.0000014221102919904503,0.000002021638703648713,0.0000056904159533377785,0.000003892919069722335,-0.000003829664807919556,0.000005938217497299366,-0.00000764238886533247,0.000004546763702463237,1.5232633181770937e-7,-0.000003906546418362676,8.475115263884194e-7,0.000011343957361019068,-0.000008083768946374507,0.0000069566138438808625,-0.0000014490594824039833,0.000010422843978873741,0.000005893133634622175,-7.679543175089807e-7,0.000018821614966785945,0.000004587376814318555,3.712066404838897e-7,-0.0000018066397380567016,-0.000006459423245010672,0.000005430309217610583,1.5866171098754423e-7,0.000007012952578837477,2.900489437167889e-7,-4.3023197215915216e-7,0.000005207648519242677,-0.0000021147438053468056,-0.0000017240338718861463,-0.000007382282466837657,0.000002250093206234508,0.000011504797724113636,-0.0000011519117184940352,-0.000010485848735454724,-0.000011717627957089102,-0.00000442693716575695,0.0000010798728385817642,-0.000015431857825646303,8.693690464203428e-7,0.000023276358291865498,-0.000006979244733165575,0.000011069939073886449,-0.000004712097502853001,0.000011291493538903496,0.0000016233973313569119,0.000005067226728853758,0.000005085362513165367,-0.0000013804526095797971,0.000003310816776618027,-0.000012584490385585248,-0.000010942307675504895,0.00001106787641529753,0.0000061915112831761925,0.0000033175369723788675,0.0000051095193910859456,0.000009176587233187126,0.000001044933419959069,-0.000005752473117573797,-0.0000037078044415689912,-0.00001178383868217336,0.0000019001489569279224,0.0000037723992787765647,0.0000058180113636062,0.000012678769791816055,-0.000002231350611057785,-0.00001176462369718233,0.000005177301834791217,-3.638733128714847e-7,0.000008988987969367667,0.0000050086100143256815,-0.000009862170342974846,-0.000009484254339002126,-0.000009132799278193222,0.000010568238809915629,0.000005338850724464516,-0.000011752125224958802,0.0000032257926737684487,0.000013850135715054371,-0.0000028765785167101987,0.000009652676113970317,0.000007949211653222825,0.000007412965235815113,0.000004521723420882585,0.000002397716757382075,-0.000013623385635067832,0.0000027598296385197894,0.00001455242305653078,0.000004730862594704616,-0.000009200967975063672,-0.000011889766475967864,0.0000110966412487952,0.000012902965712229554,0.0000069539048887163175,0.0000042767613963235645,0.00000656659886761263,0.000004795408230083611,-0.0000043348442314135025,0.000007087356664208577,-0.000007630887563378628,0.000012823331349390557,0.00000160287441584216,-0.000008388173487108563,-0.000014595066202623651,-0.0000051975165837908225,-0.0000048088201723908264,1.026915621731564e-7,-0.000006982839291285622,-0.000001487283117642235,-0.000006642971556040205,-0.0000011962653298976226,-0.000001856414733508073,0.000005318290941121594,0.000005592000384407212,-0.0000060256061802205745,6.28811392722682e-7,-0.00000540968513951824,0.00000876947862817055,-0.0000024933783071681783,-0.000006174439060006417,1.497165887664843e-7,0.000003269927467778802,-0.0000016395655542828403,7.99631232031484e-7,-0.00000685561825641187,0.000004346365459546479,-7.931556449620611e-7,0.000006882657169219358,-0.0000012327979932238953,-0.000008889007330120949,-0.0000017968436892786763,0.000008540345213941778,0.000009016141112275376,-0.000008194480442900373,0.000001792969781810588,-0.000006680481916271278,-0.000014002008008848404,0.000009846762011729009,-0.000010577125911227737,-0.0000045566387336033775,-0.000003899024298049514,-0.000006390720285887983,-0.000004435242715716368,0.000014496363333544418,0.00000565981487372151,0.000013179681218101097,-1.310687315071598e-7,-0.000012322906685144665,0.000006771405011309077,-0.0000030867495676669177,-0.000008540847338321176,-0.0000012044733368493273,4.2165493455003437e-7,-0.0000049447526548474785,-4.3775358024820064e-7,0.000007709996057546996,0.000006318465440276815,-0.000018497144845599815,0.0000020429035886248933,-0.0000036422255596658506,-0.000006241585999457085,-0.0000029306229168448223,0.000006823055105767633,-0.000003112067546206179,-0.000002831237840658435,-0.000005285913986937005,-0.000003859650164883483,0.000001830499453996837,0.000004761626487028555,-0.000003850485684192994,-0.0000051436955196550215,-0.000013283833645766337,0.000021728615882263855,-0.000004412528970443663,0.000006584847344975411,-0.000001238185475737843,-0.00001865468144122078,-0.000007116657776730062,0.000004732767266292918,0.00001275255858141781,-0.000003985519426329183,-0.0000033345048682907956,-0.0000059922957149982365,0.000007008024343752909,0.000009320132866507161,-0.000006381659629137429,0.000010506195298320829,6.108641613845822e-7,-0.000012186019107645904,-0.000006982221431243125,-0.000021473563925700166,-0.000006292341601221625,0.00000415273658143442,0.000004083682970856832,-0.0000011481996039916196,0.000008302344274625898,0.000004645480345017956,-0.0000065246453554100525,0.000001853287220759153,0.000009790192692359118,-0.000006355207950414796,0.000008387010246904732,0.000007262912206542086,-0.000003186527313943027,0.000004918451005193793,0.000006721933458878772,-0.000007121611071678362,0.000012718292954597508,0.0000027200989060673028,-0.000004499650869334131,-0.000002377075149027973,0.000012359767169871822,0.00002148884582350702,-0.000002690982986335205,0.000001957054097303337,0.000009712797042674917,0.000010174552959052442,-0.000008285558076980727,0.000010542931362513125,-0.000012789677880055361,-0.000007803659083464063,-0.000001846752764710723,0.000009535241019789434,-0.000009608984924977234,-0.000007882368840793774,-0.0000036491640433690284,-0.0000014259328190335708,-0.000008946170553225814,0.000009278680490679276,0.000001146940888158749,-0.000001973977136157132,0.000006908894713541804,-0.000004448930964809413,-0.000016134972618867026,-0.0000029474379065187937,0.000004029311341169183,-0.000008995122921737692,-7.787609639013209e-7,0.000006836203599367697,9.950853353633658e-7,0.000004373470346177448,0.00000817793102040797,0.00001586902848955003,-0.000005639005714155381,0.0000036488294981311874,-0.000007779307576211097,-0.000007115087582710184,0.0000033419918060089977,-0.000011332533242495357,0.000007808783084753933,0.000007341541192666658,0.0000064899373910693365,0.00000587130098619837,-9.782475201982159e-7,0.0000025194849268164452,-0.000013562327447007438,-0.0000041748250454197806,-0.000005964740551538471,-2.65112752337564e-7,-0.000004045911498518752,-0.000003532507337395171,0.000017836559036667334,0.0000035724453845166602,0.000005448909605791813,-0.0000056322952880142735,0.0000014512136190068607,-0.000004807178724349566,-0.0000027124787198897597,7.447236712480337e-7,-8.309582172794163e-7,0.0000028171671550159287,0.000007651485054087857,0.000005294581864126596,-0.0000070761744804302545,-0.000006572375378289733,0.000014575178996408668,0.00000498315371216849,0.000005553202239843405,-0.0000011213854250355694,0.000001193835423735364,0.000007570341966318112,-0.000004104166313525383,0.000005857944958019531,0.00000698644696344301,1.7805401980250342e-7,-0.000001589278826562284,0.000005211813840245049,-0.000007771577083382537,0.0000040979200791824525,-0.000006241232553331761,0.000006777718074858437,0.000013673135744965247,-0.0000021554541973601653,-0.0000020145317596176467,-0.000011734213393521708,0.000004494255783161702,0.0000031085183272145184,0.0000024768868171882504,0.000003159787362789497,0.000006190104459908056,-0.000014321150190242412,0.000004527948877716147,-2.434536605681719e-7,7.339836328483778e-8,-0.000006055785375539746,0.000011368133888900125,-0.00001037514457843747,0.0000026844409926695085,8.602951964884231e-7,0.000002199350660252393,-0.000015584978398232043,-6.400901048086937e-7,0.0000022681179432326646,-0.000002868347977908303,0.000012028127186553172,-8.057256608648189e-7,0.00000393262086903676,-0.000002464467022460955,-0.0000032306741372175256,0.000010770869047768615,0.00000665453893929102,-0.0000036538794608920785,-0.000009146144163680924,0.000004854428787166311,0.0000033867317993103816,-0.000002786414434113468,-0.0000017356129292343253,0.000004445601199816305,0.000005095791223642941,-0.000014294064424131657,0.0000018075383731750756,-0.000015521433538590992,-0.0000023618131328564225,-0.000007197336992979013,0.000008822536407353583,-0.000013916825901331693,0.000005907333648810711,-0.0000025478744360238798,0.0000010246658618452597,0.000009412891366622817,0.000006677357746280857,-0.000003916595700274717,0.000009508886305709505,-9.157719360828211e-7,0.0000061064960844941155,-0.0000038392578322239404,0.000010119685843424322,-0.0000020816982566540928,-0.000006809651208913434,0.000004388322530662724,-0.0000031046089901508723,-0.000009604193537489693,0.000008525907890040667,-0.000006907294949566329,-0.0000072214386903205185,-0.000009010642579696926,0.000008170210646179596,-0.0000035759524139518963,0.0000030095293874211767,0.000011362252118845084,-0.000012721673911585094,0.000006167841923793457,-0.000018117049827484728,-0.0000037258716709533658,-0.000008708275185843075,0.000007220263339099434,0.000004162430761565624,0.000006277058259223929,0.000004866264376853202,-0.000005536525098793652,-0.00001466645456412816,0.000003959670985053086,-0.000004251312308367548,0.000013097065126936098,-0.0000046867063539204055,-0.000011038437349739366,-0.000006740768643206711,0.000005906668430671813,0.000012953794306864023,-0.000005289555127794666,0.000008878805107687845,0.0000020112841566334547,-0.000009102099136614003,-0.000005066325671270311,0.0000010265134734821488,4.7151420873724687e-7,-0.0000020160984747473493,0.0000058220790524478165,0.000008064369520939171,-0.000023621242414355082,0.000009718711018972641,-0.00000372365429474572,0.000010198406895376921,0.0000032987351167217265,-0.000006644427140262987,-0.000004128015440961691,0.0000010991341453561783,0.000022326370490534284,-0.000004226409582455622,0.000007174172541005722,-0.0000012098399012085527,-8.58236690306837e-7,-0.0000021027488479313725,-0.0000015989064564027936,-9.760139079660197e-7,-0.000009200410677462035,-0.000007548700589306135,0.000005743870170907342,0.000016888613127924315,0.000009356073522098164,0.0000068093933874940635,-0.000009166404899112499,-0.000001660692385356766,-0.000012261176693080125,-0.0000017308445799086834,0.000003902883803787976,-0.0000020012577484794395,-0.0000019153284149177865,-0.000012767623759691593,-0.000005942169846510634,-0.000005116022958156007,0.000005769187698199119,0.000003531798403925258,0.00000476770371210323,0.000008925907329346703,0.000003864243175381682,-0.0000029299183837874806,0.0000018512531860882458,0.0000010918482013416172,4.3452182650368995e-7,0.000012456384493834062,0.000006490014704623281,1.5062013728836972e-7,0.000009318070183355832,-0.000002450568138713991,0.000010643867649113904,-0.000004044319497512265,-0.000007856150997603871,-0.0000015216871930386785,0.000002446858431030266,-1.702064717453117e-7,0.0000019026430863463262,-3.422650876780338e-7,-0.0000011629569539683403,-0.000010438499412071308,-0.000005609585964649178,0.0000015947473040809802,-0.0000162858276573911,0.0000028367859970822456,-0.000007019495389504695,0.000009556357518538284,-0.0000113737477854374,-0.000007581172576294766,0.000001995135546208682,0.000006767096646787166,0.000022421141724190663,0.000018317562716100554,-5.762389515927678e-7,-0.000002886416695023688,0.0000034936601227888825,-0.00000902906205684121,-0.000004713852661100504,0.000008103464399599922,-0.0000019711365342271597,-0.000002341742033861048,-0.0000049564220526189994,-8.687333482065722e-7,-0.00000790759952984849,-0.000007733148512071798,-0.000004092355724147455,0.000014391022148196342,-0.000004730879196512811,7.168898865896632e-7,0.000005554963011529418,-0.000014109810232483069,-4.982733642272006e-7,0.000006866895461498059,0.0000027222570129488074,-0.0000029900373469872867,0.00000224551494566378,-0.0000054216347085324864,-0.0000016163831709551002,-0.000006867159322403509,-0.000003078943000429303,-0.0000041530306503432956,-0.000014037971189990534,-0.00000890030218435725,0.000015485896176823982,2.397923015059303e-7,0.000005105777145579962,0.000012745085188772792,-0.000003545722701334354,0.000007752549008529596,6.011420085915129e-7,-0.000002754387479915814,-2.917758193848436e-7,0.000010241405836020577,0.000003363839787298898,-8.377858044110021e-8,-0.0000047081906890644944,0.000008315051163269587,0.000012319483288276205,0.000007925534809556561,-0.000002484054806988038,-0.000009131148233881607,-0.00000665729712573972,-0.0000012325758746909053,-4.6560378320228343e-7,-0.000002787410077001072,0.000005641707860960918,0.000006588376201300141,0.000006212260895181541,0.000012014485114296153,-0.00001172731327403667,-0.0000031745539175651858,0.000004516695793798895,0.000016690536306705227,0.000004909758559644309,-0.000010412055334683717,-0.000004721518865132065,-0.0000029682243918054287,0.000006460038262899735,0.000003835721904771874,-0.000010723070004739028,0.000007454969902922793,4.254906782468053e-7,-0.0000055468442736610135,0.000014484781815920694,-0.0000024067037438391647,-0.000010384058300657363,0.000006670436115952603,0.00000298423367023418,-0.0000036065688491734472,-0.000010487992290882932,0.0000050053667258795445,-0.000005790597733886601,-9.31919140687133e-8,0.00001540185785060181,0.000009934672580515775,-0.000010036731567981415,0.000002009846002134004,0.000001328097104934296,-0.0000030032425581267215,0.0000016772481492363477,0.000006196813253010732,-1.5150139454794495e-7,0.000004980512569950716,0.0000017589799908069931,-0.000005133049460266701,-0.000005067172422155303,-0.000006765076633599833,-0.000014513554566201236,-0.000020118897563906967,0.000010420029758307957,-0.000005699564490512426,-0.000006835204671341054,-0.000006573040093306128,-0.000012681352842820692,0.000011039998184438514,-0.000011475372294372722,-0.00002068539300891302,-0.000006475027114310852,9.545088336721498e-7,-0.000005008587991208192,0.0000034745396010398177,0.000008962334099058618,0.0000042793088703409325,0.000001650730313466042,0.0000012739670006232785,-0.0000019377741169846593,0.00000939754251575397,0.0000028238813077870256,-0.000008938086301248703,0.0000060333587274551875,0.000006284713270529763,0.000015744971179199625,0.000011707247904032056,-0.0000041386992256154845,-0.00000874573184686685,2.4750341510102844e-7,0.000004117360271403646,-0.000002344512663665795,0.000005102643582085335,-0.0000092691075858842,9.220699543488067e-7,0.000006083046233071062,-0.000015861409297560274,-0.0000014614282489681276,-0.000005434251534993734,0.000006657399233959483,0.0000049380093929788425,-0.000005969152069074872,-0.000004326732206196263,-5.5115133643308924e-8,0.000007251582971137478,-0.000005501863132173586,-0.000009790476489689864,-0.000004827665342887833,-0.0000022436693612568563,0.000001524619405340634,0.000006240906236372885,-0.000016818727571686503,-0.000002779314919108993,0.000014431441797564952,-0.000008191827974114134,0.000013258196938378637,3.1226451644534355e-7,0.000027213449107098693,-0.00001591320801009682,0.0000036572055172417096,-0.000002418485027028188,0.000001753760341870648,0.00001796150869275224,-0.000009892757285768205,4.3112731005896827e-7,0.000007440498255583814,-0.000002139592845738153,-0.0000060029520930105605,-0.00000464262337794314,-0.000007948634596463673,0.000006958433293395644,-0.000007667201970777759,6.591924555335719e-7,0.00001033423009365378,0.0000011716052858955048,0.0000030740430133996164,-5.283118550265397e-7,0.0000039939009273335985,0.000005797762713159459,0.000002783202246241717,-0.0000070397499595202385,2.805734783279094e-7,0.000006776988564022274,0.000010509133942131761,6.334384661756709e-7,0.000011307500818792418,0.0000056950667974047315,4.0679628471195823e-7,-0.0000043133651214231405,0.00000868320101845735,0.0000018036274916441735,0.000003999382309614388,0.000010362365898647335,1.3992626254447638e-7,0.0000107444528729383,0.000004421347727520164,0.0000029779189962210567,0.000011163927034058992,-0.000002833104515422085,-0.000010792349354980846,0.00001141566580593821,0.00001979835178344713,-8.549468480463559e-7,-0.00001736786820657691,-0.000002536685407287613,0.0000012266801711138093,-0.000010351858496657172,0.0000073422663590154495,-0.000013789427127065063,-0.0000024749843658852222,0.00000811170217375032,0.0000027454426482959712,0.000001256670845978185,0.000008311269928984291,-0.000012826179784671128,0.0000025990296498330466,-0.0000025505411229100593,0.000004716071786614363,-0.0000033651448776647043,0.0000019138889284384226,-0.0000082962034223246,-0.000002042365938365913,0.000005797786163968864,-0.000009280176430951833,-0.000003642278199913513,0.000006246050447753955,0.00001645271078088832,-0.000007022802948722559,0.000006001216483522892,-0.00000859177616904589,-0.0000020575616225853323,-1.1720015815020238e-7,-0.000004095023658986116,0.000013771465730087238,-2.6740142568990135e-7,0.000002992386074655681,-0.0000021513284920848452,0.0000020367082761094086,4.4178197709323985e-7,0.00001645176156911991,0.0000026047512902281705,4.991492087560473e-7,0.0000028527126031527966,0.0000011002954106640422,-0.000004148417330567542,0.00001878003619021657,0.0000024216830080520788,7.813491407480162e-7,0.000008057056770963748,0.000006066510974099248,0.000006364675805645361,-0.000003853529795022026,-0.00000695584374801249,0.000004186203873145097,-0.000007361631591862652,0.000014322263947562797,-0.0000014406682955236103,2.617055596659182e-7,-0.000003898145935896433,0.000005189936800166069,-0.000008694744304558006,0.000005416631648896377,0.000005677668318130237,0.000010052205948801181,-0.00000940775170123936,-0.000004460874691940579,0.000003382034304122853,0.000006483214865776117,-0.000002064216045521204,0.0000157555258897572,-0.000005168560628647635,-0.000004306539264938547,-0.000011263110685579324,0.000006497137380190282,-0.000012697595806088611,0.0000020795518113400665,0.000009203972754959955,-0.00001127036186888341,-0.00001583271214320005,0.0000037386258068527664,-0.000002024043027497371,-0.000002466450065367675,-0.000008026779138326816,-0.000002186654580577578,0.000012143135894344851,0.000007999928205292285,-0.00000800030944527925,-0.000007320900068341708,0.000002228265267009751,-0.000005319153259115745,0.000017292733354222756,0.00001144602350123849,0.000008350768888884041,0.0000054326800269054865,0.0000028857157504392665,0.000007687961601365966,-0.000007274831971407699,-5.059720983471789e-7,0.000014672714416146153,-0.0000010070965238676983,0.00000889700292553375,-0.000006288248940369635,0.000005273807346717609,-0.0000025643382408363667,-2.6902170731478736e-7,0.0000037833465239857936,-0.0000030624899019752034,-0.0000034548567102382835,-0.0000014595126960572425,0.000002391363499079371,-0.000004964509067733537,-9.82116914256284e-7,-0.000004664008053395889,0.000009157214282285255,5.96910582257281e-7,-0.000010865752584712792,-0.000010722955624538863,-0.000010640968114354328,-0.000009917637445803643,-0.000002081936473331645,-8.926374255601879e-8,0.000003011121837600531,0.0000017565366452457576,-0.0000017260607828826148,0.00001638647023918144,-0.0000054795400947513705,-3.787184784610674e-7,0.000008300972276590956,-0.0000030953646598408414,0.0000071544825109480596,0.000006540182832013798,0.000004089417990277635,0.000004552418723907583,-0.000004914056224701035,-0.000006900967634073659,-0.000007597962437955871,0.000004454212518139348,-0.0000047036596852214065,0.000008986429376793613,-0.00000857575601398626,0.00000814367254903128,0.000009581218519119614,0.000007151916836857624,-0.000004067648646523999,0.00000782384439166438,-0.000016348966489854545,-4.3878458142521235e-7,-0.0000032503705533550254,-2.083744884689282e-7,0.0000029824051038015867,0.000007853102688637517,-2.4347064318189265e-7,0.0000032233380896774033,-0.000007502598297256851,0.0000028926993130313646,0.000004972327519340984,0.000004639340900614832,0.000008538354821195868,-0.000004006235687225136,-2.970988528987646e-7,0.000007681780717379205,0.000011152646337377414,-0.000003183546102029193,0.000010917931781115594,-0.000006363651966427147,-0.000016357191273397246,0.000003305274505484873,0.00000496076399770069,0.000006260519790555881,0.000003137413915242154,0.00000834826882899641,0.00000555695529904991,0.00001514310629062883,-0.000007529841105789312,-0.00001095324381321759,0.000009376715179160606,-0.000009769897062321768,-0.000001908535948338377,0.000004207843454682386,0.000003396582775067406,0.000010946126222044952,0.0000025651506024901472,-0.000005839806756652567,-0.0000059269629885081725,3.264909922216835e-7,-4.463106367818724e-7,-0.000012348025706425464,-0.000007399477994851153,-0.0000066353824107434065,0.00001108279879475846,-0.000011718568729799615,-0.0000013324226067472234,-2.2203693355720727e-8,0.000011278913226901196,-0.0000021954547227911943,0.000010238335177902696,-0.0000016069089988434333,0.000007053462783461679,0.000003047170109136175,-0.000007815602001583076,-0.000011887878429680171,0.000010444395877045936,-0.000016222868765660304,0.00001271430834002348,0.000006392601038234364,-0.00001039439793642172,6.510809885164816e-7,-0.000017598673447666068,-5.41058571835817e-7,-6.724166731531664e-8,0.000012324531309334862,0.000012421956593182742,-1.044045477277346e-8,-0.000006593265557028568,0.000004408391390274209,7.302760191260399e-7,0.000006487576533614867,-0.00001380410797257953,-0.0000087284437141995,0.000004147718173153713,-0.000012697128529583824,-0.00000733597303747414,-0.000003671717131609531,0.0000073745290473505856,0.000007276837748234862,0.000002725303634430091,-0.000006296266724756519,-0.000001747141690423016,0.000002519197051652321,5.110479233248988e-7,0.0000020931365405524577,-0.0000013067399127857722,0.000009597577828912437,0.0000029794747102409487,0.000004839593665585673,-0.0000011382591976117207,-0.000001702805852430213,-0.000012724501478397083,-0.000001626688381114338,0.000003189915509844913,-0.000009544611646423316,0.000004908477363382987,-0.000010104834594367535,-7.723913556918983e-7,0.000012371094902269525,-8.331856463904127e-7,-3.602472873688467e-7,-0.000010643846969467354,-0.000006375068190096401,-9.834873201236187e-7,-0.000001818703562319527,0.000003146827346316128,-0.000014971322651656995,-3.2238982463923365e-7,-0.000004817827706659688,8.359955833569514e-7,0.000004079766203160249,0.00001379150091602322,0.0000051858725784780205,-0.000002016773884086927,7.410168588948891e-7,0.000004302580576952134,0.000006391900386306174,-9.537683837209217e-7,-0.000008269268787432322,0.000002130395913078018,-0.000006186361650287051,0.000009082520427613887,0.000001873214841522421,0.000013028439707730855,0.000008738432963838794,-0.0000017802751371647825,-0.00001263362795215044,-0.000003651799879540631,0.000006826451581018116,-0.000011472194179419912,-0.000007170087470175276,0.000005315335573951482,0.000006722958780373049,0.0000081298865565078,0.000002412023291791738,-0.000008432521866868855,0.000011282752898490492,0.0000020722542031718757,0.0000174461599074412,0.00000865232057675185,0.000002040377564153862,-0.000004393369662275292,0.0000028463354949051034,-0.00001044069354631011,-0.000005521305496617862,-0.000001712524705472287,-3.6590019145410253e-7,0.000002436753892742517,0.0000024916425397845247,-0.0000014561680834454043,-4.879305392126345e-7,0.0000056364128240568315,0.000008875316978856732,4.886745958690045e-7,-0.0000134221515693321,0.0000015774939872779213,0.00000314769747131517,0.000011046485952727554,-0.000008489790735270735,-0.000001804218372086095,0.000005139526150250903,0.000020188704252050205,-0.000004345877894248779,5.349419610778798e-7,-0.000013687638298873378,-0.000004566928947887449,-0.000022909379483219605,0.000012789061948151838,-7.229844589576444e-7,-0.00000128615002628608,-0.000003825519539555143,-0.000004486020818955302,0.000011471910295141067,-5.56162640438452e-7,-0.0000039757875399041136,-0.0000021638599502643055,0.0000010584501950543138,-0.000010779968782124971,0.000008419392309687229,-0.0000020760251604676845,0.000005115785090764331,0.00001235062306590945,0.000007508478093774189,0.000011292368171176232,0.000006947192022407457,0.000010721038720140156,-0.000011750912433255136,0.0000015596388718768281,0.000007675070747423433,0.0000070828029807219215,-0.000005381039020416721,-0.0000028687322918708156,0.0000022301466828025592,0.000007222085233103445,-0.000004496690838380164,-2.4336520645815315e-7,-0.000009328351396333963,0.0000011986364527529358,-0.0000025885614488160544,0.000002345313868533413,-0.000015402180257444424,-0.000004883579332549667,-0.0000010320371474773994,0.000007580413775566586,-0.000005650382195314351,0.0000021637784989454574,0.0000033124446215305063,-0.000006985542058739736,-0.000003511036388280951,0.00000933879686372089,0.000006451390977605851,0.000016625039715433444,0.000005030808898594848,-2.442968576503667e-7,0.000007438273144357595,0.0000034624879950676505,0.000005219275674589556,-0.000015070118413028497,0.000005561165027111087,0.000005123632588945049,0.0000034089632193977044,0.00000217149054575497,-0.0000029056453490964858,-0.0000058645693159378005,0.000002167036480767659,-2.317141677398029e-7,0.00000538933374947716,-0.000009951928492477887,-0.000017023020545660977,-0.00000426070525420901,-0.00000372973252257149,-0.000002059402270644891,-0.0000044735611136636746,0.000015690490145705304,-6.153356608769198e-7,-0.0000032433240354814603,-8.559844436724644e-7,0.000012869618451789848,-0.0000029702757707882105,0.000008371579267753026,0.000008487243728186562,0.000019283850344936187,-0.000010148162679197331,0.000009997499837697185,0.0000011223198838776621,0.0000021100224315883235,-0.0000037346621100243768,-0.0000011357079762455918,-0.0000029587762028040166,-0.000016589004562493432,0.000021639571434875876,-0.0000036703509044121313,0.0000032153905634502983,0.000008885137293621076,0.000004390528288153851,-0.0000021815070489783946,0.0000017026404408463324,0.0000010046893238092633,-0.0000041494645736920276,0.000010262627987585521,0.00000987339893252624,0.0000035474890584123113,-0.000013412484304962083,-0.000013569916510736412,-0.000012657334261889009,-0.000007855278577550718,-0.000013793202115805996,0.0000056915831257998815,-0.00001002289808635236,-0.000006562953608025338,0.0000029222381658851604,-0.0000051374175177704485,-0.00001082854922839707,-0.000009816543245799811,-0.0000161833950418963,-0.000006489637394079132,-0.000008108900103940644,0.000013574662584319097,0.000012206998955416945,-0.00000459410073474506,0.000004721810295571727,0.000004715017394538606,-0.000015041134220917232,-7.941350004299867e-7,-0.000002458953369832399,-0.0000138697139736429,-0.000010407618403207445,-0.000001659329094625797,-0.000007651849081066368,-6.076853757137601e-7,-0.000009011443208141802,0.0000036131558408503638,0.000006118273917378309,-0.000006827194533842479,0.00000423946482743845,-0.000008693033861714901,0.000004342802577917813,-0.000014837436185109257,0.000008954919581554553,0.000008118242662052847,-0.000007244476090840408,0.0000028490429004838247,-0.00000766693185437971,-0.000015226907478259897,-0.0000071365376463895926,0.000004709394740509219,-0.000004015375428421754,-0.000011532562484955037,0.00000860783815451569,-0.00001731204330179901,0.000008584222445136485,-0.0000012536487667960424,-0.0000018836799586473079,-0.000010055759170031812,0.00000811071107477858,-0.000004438729567952466,-4.6621873415383343e-7,0.0000029456826462396565,-7.0818217812637e-7,-0.00002146087576576809,-0.000007480805797028896,0.000014632219579113647,0.000020429265566942413,0.000004318591584339421,0.0000023436949244012326,0.000003974467470765855,-7.881652766615524e-7,0.000007214596924635148,-0.0000010518640363530302,-0.000006950056990853097,-0.000007770460006451821,0.000008124316866588358,-0.000008583144562008235,0.000013851830840010592,-0.000004310986889371644,0.000004515814059403186,0.000007582002188311738,0.0000013837537186825953,0.0000011569255891906795,0.000006543797162372702,-0.000011759479125048823,-0.000011828705269491463,-8.03001061223053e-7,1.5106836637647416e-7,0.0000034486448359809874,-0.0000012588458841588756,-6.288221453133123e-7,-0.0000037185076147321045,0.000005090515306521805,0.000003140247520708822,0.00001621457730494051,0.000011413299891494266,-0.000005930297043005737,0.000006517750936261891,0.0000025869341470920556,-0.0000024965628580703915,0.000004920614427036657,-0.000002870649005177337,0.000004914103354622474,9.9633725821923e-7,-0.0000112678288661231,-0.000012321328350404381,0.000011829616594168098,-0.000008729773415214477,-0.0000055977872279883455,0.000008679768730005019,0.000008542375109688967,-0.000013453773736365988,0.0000034467080421686656,3.906389145270046e-7,-0.000020196078593928963,-0.0000011488860309857603,0.000007272101273292391,0.000002803770698403853,-0.0000048895347052624,-0.000006758968738128791,-0.0000036956812415887087,0.000014638997859093008,0.000011145739941222412,-0.00000482038114478768,0.000002222380131473861,-0.000006487093264165535,0.000005411905626711164,-0.0000030112799727809293,-0.000005037067694233699,-0.000001210750850673384,0.000020222059386737072,-0.000005473021917837537,-9.560032342925795e-7,0.000007956464652203667,0.000007904299827120523,0.000004604497268808016,5.797461507350403e-7,-0.0000016563377013572995,0.000002891608028815798,3.9489358385742454e-7,6.531709961209929e-7,-0.000011687832089500335,0.000008502480926244506,0.000009513826820688012,0.000005696747664592309,0.000006740823692752055,0.000004634841582637286,0.0000018159855274145913,0.000003980374031867851,0.0000021273305078884607,-0.000010345576622117684,-0.000008781385706561987,-0.000005438748569533866,0.000014114360911922067,-0.000004177669329824213,0.00000508614993796234,0.000008020497354401344,0.0000039550628424838745,-0.000008376341919190481,-0.0000011530830419136002,6.299183106017913e-7,0.00000767770260146488,-0.000004366842616880957,0.000008405649516616112,-0.000006175370674445851,-0.000002469262662685743,0.000001942653825908613,-0.000010401650375418259,-0.000005798967383673392,-0.000015808425784666895,-0.000009555618565534574,-0.0000026259908964820413,0.0000042505390287205005,0.000006837388011893913,0.0000017702161359782813,0.00000760642031585872,0.000002636573645142701,0.000008827994329518427,-0.00000485651015447548,0.0000018985589533435036,-0.000006894372713907972,-0.00000936994326925269,-0.0000021152274270362163,0.000005038822548595798,-0.000016011087841805545,-0.000006574823021720923,-0.000005305797609881754,-0.000003104456805208764,0.00001807146893609435,-0.000004365585998255239,0.0000067186606670959225,0.00000698818597986858,0.000012938018431973132,0.000004579400046888026,0.000012920305820380992,-0.000007405520267948376,-0.0000018763162262561473,0.0000051483921526583725,0.000002418081787084421,0.000020576644241905673,0.00001781644231215302,0.0000029087991751990973,0.000020223744430759423,-0.0000020940220432408485,-0.000009239111381341869,-0.000015140349392250833,-0.000013856614158485005,-6.607640807430564e-7,0.000004180194736846362,-0.00001650600710009163,0.0000011258688997655734,-0.0000025295741453116103,0.0000023373944098994632,-0.000010652190289120916,-0.000008215050049216599,-0.000016957728477929516,0.000004315407026627291,0.000004692029934921568,-0.0000021004813526236794,0.000005912054931976354,0.00001658449070648836,-0.000003226794645754668,0.000007135165378389888,-0.0000045742911756552844,-0.0000014328800283900483,0.0000029517015238637137,0.0000017302757375927744,-0.000005213474449819713,-0.0000016502180540657697,-0.0000032370072607625784,0.0000126657283586639,-6.728966768421211e-7,-0.00000523206022224811,0.0000022403833006757618,-0.000006971241126427861,-0.000012093269761302354,-0.00000988481815499733,0.000009984174306898833,0.0000035602924682933413,-0.000018827113341380417,-0.000004559593570811874,-0.0000046177118344339276,0.000007634014028534719,-0.0000015086553410228504,0.000007122830315616933,-0.00000961916959399825,0.00001646206367537426,5.797854591394453e-7,-3.281404806704838e-7,-0.000008406617471343384,-0.00001482719375184438,0.0000023313541113461962,0.0000073036321985059065,-0.000013146209761556467,-0.000003624494789294592,-0.000006593887758426313,0.0000022185089677469416,0.0000010474176578987103,0.000006042618454501969,-5.325654333968316e-7,-0.000002942819386092774,0.00001788656570064885,-0.0000015530152925731099,-0.000006728933532461021,-0.000007116566221729418,0.000014173749414559134,0.000008446348436518333,-0.0000028329927398397436,-0.000007036444368834383,3.9929811426469755e-7,1.4920771723024696e-7,0.000004777131458779228,-0.0000024205524381920946,-0.00000445937122404858,0.0000028572388571975693,-0.000013103499802936798,0.000006261181302320333,-0.000001357056735376233,-0.000010591905497537493,0.000004663865743480273,-0.0000035848499516616064,-8.268964550568849e-7,-0.000010942900013522515,-0.000003050003675696357,0.00000818432799911326,0.000026352922685088823,0.000002064589100385445,0.000007189811488983043,-0.000005489343970033916,0.000016405282104049474,0.00000280207625930446,0.00000531144778054637,0.0000013299131173603617,0.000013874358917258086,0.000005963767909256304,-0.0000026434876543410604,-0.000012367052036667315,-4.2256974989468813e-7,-0.000010127739599871437,-0.000010990847323203255,-0.000004477186625682456,0.000002173608319026154,0.0000112761538701524,0.000003447301996438892,-8.322035457151181e-7,0.0000067274253208213404,0.000021865696218972737,0.000003198939002749995,-8.797414938163543e-7,0.000008180425570166544,-0.000004609500249332063,0.0000013201648057006699,-0.000007185139885314809,-0.000007376388230026203,-0.0000075717516008600856,0.000002483096492625233,0.0000049979633412416095,-0.0000014794506267969564,-0.000004415883468840757,7.966662489911299e-7,-0.000006885661653587538,-0.000016300379446288656,-0.000011493838283808837,0.000009184439864944956,-0.000005434899243512882,-0.0000016124030852622673,0.0000010017750708763037,-0.0000049130836139585535,-0.000011972598679044888,-0.000006359323575121318,5.661687235649545e-7,0.0000017500855374288328,-0.0000038182016055035305,-0.000012633787778019942,0.000005007678194936895,-0.000003220777578472568,-0.000011766981584104807,-0.0000015585195711862055,-0.000002295092940411413,-0.000010218425623425308,0.0000047833992607942426,0.000008573624987230984,0.00000517459405863418,-0.00001976855432802604,0.000014825603674539118,3.284125224678087e-7,0.000009480880871196061,-0.000008182305409191576,0.000005274253572862235,0.00000721196405106136,0.000005694349558100854,-0.000010624828856825938,0.000007474084279249343,-0.000005141619195456808,6.379020743188937e-7,0.0000039341550448066874,-0.0000022626954941715334,-0.000003984254618689622,-0.00000912722172427825,-0.0000023324448827207063,0.000018540037848782704,-0.000003861704869201348,-0.0000018721520175496763,0.000005261936146965416,0.000015503014514313725,-0.0000029947308696546963,0.000006319305232493935,0.0000010073967276332028,0.000005020606151758918,0.000007252006031956388,-0.0000010649104682767092,-0.000007616407212657459,-0.0000056355525639577815,0.000001349342002051221,-0.00000100627019385384,-0.0000027425830510772306,-0.000010607759196892387,0.000008777374057469316,0.000005293274026057731,-0.000005501478365364231,-0.0000029969995210546545,-0.0000013682141901031242,-0.000002300474550181649,-0.000010701803855275369,-0.000015127574401312011,5.445998666769982e-7,0.000017831762221050358,-0.00000926367722021176,-0.0000037282193331552043,-0.00000873131276403324,0.00000362149398021949,-0.000004584498175528045,0.00000470569950086354,0.0000011831628984182344,0.000005765429287656863,0.000009281244437639878,6.889851912631405e-7,0.000004804545190836082,-0.0000010632625613008158,0.000010345839648564544,-0.000008188957552951271,0.00000837171978967535,7.520520920315464e-7,0.000001867451370633645,-0.000007325959486626148,-0.0000022934885514903616,-0.0000064779934817222,-0.00000620642815862151,-0.000008211477256513672,0.000001864177133945774,0.0000029402366072872307,0.00000583143479869475,-0.0000100575827890142,0.000009471228216626996,-0.000001752432117925311,-8.05821692903587e-7,6.150812622379123e-7,-0.0000021380920699404503,-0.000009926981420368033,0.000016890313743956558,0.0000030403628311369403,-0.000009670410602866416,-0.0000028669838302765764,-0.000006734960589876298,-0.00000744964529954659,0.000016110017789299717,0.0000029880750263662787,0.000003867603462119864,-0.0000038080988886336003,-0.0000036040933832409226,-0.0000015942182462429174,0.0000144138973831028,-0.000012782868119362905,-0.000003713236044703858,0.000008795936458743217,-1.430197397722058e-7,-0.000002595817631818484,0.00001521493381366581,0.0000017508222547356368,-0.000003894344004278177,0.0000020793413043519825,0.0000027726832747954396,0.000010565471041028167,0.0000015859050254830655,-7.11636083379634e-7,-0.000009169034499229004,-0.000003437943422704326,0.00000772065493996501,-0.000009236227995259829,0.0000012035276272348682,-0.00001146353295513905,-0.000003033866996998032,0.000004495434210890216,-0.000020021497741556715,-0.0000052087505155686956,0.0000071988666379771175,2.745061504741534e-7,-0.000004760252899980875,-0.00000434662165589944,0.000007219147838391016,-0.000004847212242294379,0.00001849957627749806,0.0000026597408572540718,-0.000004617434770256198,0.000002721724845400748,0.000007141573984645901,0.000009216230652629748,-0.000007927687342048467,0.000002747648454268596,0.000009258305627777321,-0.000006298733395958319,0.000006005772902564581,0.000014829004099616325,0.000003537199866291535,-0.0000011736985002650476,0.000005605578621466698,0.000006893880677688234,2.8427118195685896e-7,0.000005794804641314527,-0.000007532063572258452,-0.0000033963439341778324,-0.000008723221301447029,0.000011076288837948634,-0.000005373358299884196,-0.0000021951231652033057,-5.148275791859161e-7,-0.0000028268418760522696,-0.000010041794770857343,-0.000010560993542049407,0.000010041778196271096,0.000010981511821495624,0.000004608003502170211,0.000010932925063309655,0.000004189702608051569,-0.000013707087809430848,-0.000002751458437455439,-0.0000033201963524775634,-0.000009653030760700874,0.000003192448677653514,-0.000018912704974957145,-8.535794388180513e-7,-2.395990157618267e-7,0.0000016735220757086264,-0.000011069479613714717,-0.000010442246556820365,-0.000010595300713284126,0.000008411467292809676,-0.000010592660892601416,0.000010621753547133348,0.00000447150957241328,-0.000018945945937968694,0.0000052140254162115535,-0.0000027670493605209903,4.152633837979316e-9,-0.00001341336877964723,0.000001377403803482447,0.0000035048258744161544,-0.000010346049504137338,-0.000003712392403745245,-0.0000019349717504410114,-0.0000025014644707613363,-0.00000843889237981888,0.000012049907064864455,0.0000046247649844629715,-0.0000025597744117021535,0.000006850659001151726,-0.000015945575174878402,0.000006880488130399352,0.0000017449087537017385,8.471373946361493e-8,0.000001242789477300419,0.000006047909231176516,0.0000025690265688169977,0.000005312518972338859,-8.788212788524198e-8,0.000008398524289592996,0.000009581706267541999,-0.000004292827218320953,-0.00001543574508594443,-0.000012959110919265096,-0.0000072797598345253365,-0.000016475395369470118,-0.000005402571364250156,0.000008190282061815496,-0.000004012184819619854,-0.000003381603298005191,0.000006312231146521902,-0.000004989277742498862,-9.40579544009376e-7,0.0000015351953451737344,0.000004407583792759375,0.00001551917307220444,0.0000012846548258230681,0.000006730758159106887,-0.000014085560293663379,-0.000004301555115130309,0.000010784029154543914,-0.000005834467201340985,0.000004788181412795596,0.0000013521931384531428,-0.0000052646141315899534,-0.000006851760132677715,-0.000017189422180079877,-0.000012650820961137986,-0.000003972926526031741,0.000007698122778636945,-0.000012580311377407731,9.219330424706088e-7,-0.000006201087719710062,-0.000005894155069646618,-0.000009990707928485436,0.000005487234889182287,-8.637053634496037e-7,-0.000008267705212264106,0.000012238304205787666,-0.000002601144882715919,0.000003975031011723119,-0.00001902043907683481,-0.000010677480342394877,-0.0000010554317325689309,0.000002001391199063303,-2.3376603176542488e-7,-0.000009850064527119991,-0.000014682655010090174,0.000007144063312675395,-0.000005699879575565224,0.0000125119910037957,0.0000035152741611153297,0.000005640394789889725,0.000008631507762690254,-0.0000056300968512391905,0.000013086329170369537,-0.000002165130727830597,-0.000005435606612094826,0.000011354778778435433,-0.000009193386539904453,-0.0000033445559346241864,-0.000006453242754001191,0.00001375679292433593,0.00002475833970799114,0.000004868990933747426,0.000001456411556758869,0.0000016340537652192236,0.000007415580487350635,-3.815831779370187e-7,0.000011372453919273397,-0.000007033395646863237,0.000006469272849873533,-0.000007696169477076379,0.000008686062196724743,0.000006231087903025486,0.000014618570997654966,-0.0000071292160703468375,-0.000005857999110787353,-0.0000030889169950769137,8.667584732419418e-7,-0.000005521690690587502,0.000003901110576806649,-0.000009154966765209366,-0.00000102005068480632,-0.0000056391977573982626,-4.634971370599786e-8,-0.00001278180598266519,0.000005456130336978136,0.000004598716861887475,0.000005560698617742512,0.000011744964462550735,-0.0000020593009855654152,-0.000013747854509392082,0.000009123962689775645,-0.0000014213523660647435,-1.4876137879962664e-7,-0.00000886832555608785,0.000007889781444093116,0.000001639381599525613,-0.0000041404640522312926,-0.000003658790979218929,0.0000063820134357957745,0.000004658592507750388,0.000014767441420015218,0.0000028121351915676463,0.000009506200459040751,0.0000035518834561673656,0.000006491534259539923,-0.000010743281119239605,-0.000003067325410237503,0.000002512619654003647,0.00000548489293937398,-0.0000064281938982879245,-6.26837677918797e-7,-0.000005912933093061947,-0.00000899875659607625,0.000006128764314460048,0.000008250827341814111,0.00000543082707109153,0.000002615552296746451,-0.0000020869697478511124,0.00001289583623533514,0.000012180213952050492,-0.000002563117898362221,0.0000054183951188588854,-0.000011096365917608166,0.000006609870562741224,0.0000014666510009340503,-0.0000032187936915274407,1.3861455569162075e-7,0.000004480109802701014,0.000003960599478635066,0.000009985446963285631,-0.0000012405928321829865,0.0000021192924217858815,0.000004251732232874561,0.000007871255143138655,-0.000008369813831770045,-0.000006137293178024971,-4.373121007819809e-7,-0.000014316926511217284,-0.000004091880985334062,0.0000029337770572367168,-0.0000010555947384924532,0.000008451280938569215,-0.000006027149153833097,-0.000005361824741630414,-0.00001751266799953407,-0.00000418490519848203,-0.000012114807421558607,-0.00001185872937015229,2.5656437550000816e-7,-5.311799266699301e-7,0.000003283010974772521,-0.000007420512706914207,0.0000015064098415322777,0.000009318110740339389,2.3467437613991226e-7,0.0000016749455082770024,-0.000013089766213248418,0.000005336827924140394,-0.0000065763742012370415,-0.000007688884837259605,-0.000006379172793022088,-0.0000052674180805651735,0.000026159745201637067,-0.000002574643413536603,-0.000011336765325043771,0.00000749706342540644,0.0000028544664114040713,0.000005889240109262144,-0.0000028506306742503096,0.00001660973483449241,0.000005096968097218818,-0.0000022436677632283773,-0.000014209093321333184,-0.000004096068619342823,0.0000032038303978494717,0.000011698622129945109,8.259488441657739e-7,0.0000053518139661477355,0.000004977290545766761,-0.0000031087554640926684,0.000010310339349571514,3.57122730471841e-7,0.0000034255014643947655,-0.0000037542199230992417,0.000013657572343626636,0.00000241324792516644,0.0000056130683886664495,2.077197070958198e-7,0.000013411930284113309,-0.000013427699125710466,0.000002602495469486355,-0.000005316856150607511,-0.00000988568633177737,-0.00001268115253276123,-0.000004771634066358839,-0.000018649430366868255,0.000009700420402983691,0.000006207701354649293,0.00000433589172128868,0.00001026506993328478,-0.0000013097586475495907,-0.000005675146517782775,-0.000004002627671923047,0.000010928126132669174,0.000012593204308372091,0.0000027011085468189684,-0.000010723803437488503,0.000004038941273898791,-0.0000022669753283004772,0.000015083330492433368,5.470775537263699e-7,0.000003640348624971635,0.0000098055293855521,-0.000010949592056421455,0.0000025199128549241892,-0.000011683490269011818,0.000008159800913369553,-0.000004227170361390109,0.000014331636497836107,0.000003854560844978923,0.00002525049840947815,-0.000001282648707621969,-0.000002534984136730341,0.000004318442087049568,0.0000055238328082951435,0.00001422765019928415,-0.0000028204372003828885,0.0000014238251927189344,-0.0000025004893959666943,0.0000026419428133096044,-0.000010504116773366286,-0.0000028541674273339235,-8.536595840992261e-7,9.38274467386868e-7,0.000006772529997093068,0.000003762123234835958,0.00000605319976187996,-0.0000017194114208516102,0.000011444713163884509,-0.000011330109627307357,0.00001850445481143977,-0.000005882433941509983,-0.000005660054123818182,0.000012198614076855467,-0.000018017188539708192,0.000009313358961102801,-0.000006593252383448856,-0.000009328737458738765,0.000014266975480032556,-0.000015540517217391434,-0.000002057733633090051,0.00000550459024184803,-0.0000060386884588102376,-0.0000108581118363222,0.000001756563080550879,0.000012615372608812774,0.000009769865526392664,-0.0000031359826370586106,0.000007349867007571911,-0.000009375436127658272,-0.000012318911732575642,0.000009352049587012622,0.000008720499851928552,-0.000007447373174048109,-0.000014021696868143613,-0.000004179448600982667,0.000005719198412508261,-0.000005606724709294923,-0.000004202018477166654,-0.000002660146360021762,-0.0000042815285515044635,0.000007358804899714278,-0.000005801190444032067,-7.470158732686717e-7,0.0000023838486477012856,0.000011078642092585283,0.000005680487637880903,-0.00001326795353620563,0.000003189724858054704,0.0000014527758001257155,0.000012022276180955497,9.446043841506981e-8,2.9176195404771396e-7,-0.000008050551131116809,-0.000006985866470505344,0.000004889778844653609,0.000004405957214963101,0.000007854974797470787,-0.000001728922153719167,-0.000008077120419798027,-0.000008146918382761564,6.759009176322005e-7,0.000011020291395349832,-0.000011710218270738809,-0.000004365473170426466,0.0000042196790432951765,-0.000003013108697592867,0.00000529966885337278,-0.00000815275956636118,0.000009537940519863634,-0.000005226915027265463,0.000006469758516204219,0.000005381929988105103,0.0000048872622752371915,-0.000013874663761944329,-0.000008650600445220885,-0.000012927231885233845,0.000006502574146167881,-0.00000826873785090262,0.000013862099582537436,-0.0000034913483042733488,0.0000013460565667979219,0.000001981438802608671,0.00000803232856861631,5.024597478481261e-7,-0.000009042610148681577,-0.000006552837231516781,5.307119360981199e-7,-0.0000035646173490932036,0.0000038322172150518645,0.000006340773845770735,-0.000009938082442472339,-0.000009391062502743634,0.0000037703888871505258,-0.0000075746581516424194,-0.000021894193230087683,0.0000022876307848821414,-0.0000034193511941009918,0.000014493361927931462,-0.0000021080224003221096,0.000002651304350317154,0.000011526912479592732,-0.000012280979916996636,-0.000006100875193875078,0.000016503517355763137,-0.000010500338239934495,0.000005064461939993413,0.00000430912733074796,-0.000011736813281879097,0.00001104330013608606,0.0000013725146871028277,0.0000017234288285519667,-0.0000015930688237529123,-0.00000658349896147214,-0.00000779428832002719,-0.00000835932590046793,0.000006105542398087095,0.000001186886531601492,0.0000048541152305347575,-0.000008518411899106164,0.0000015592989814028618,-0.000002838452407418262,-0.000011602192715969898,0.000008507719217810135,-0.000002727583666144229,-0.000002729698657871867,0.0000050706422723666825,0.000007866817816772667,0.0000026284600729703172,0.0000033441591654634398,0.000004247372107879545,0.00001405150367592683,-0.000003392897438969373,0.000020007447280487706,0.0000016147634242332086,2.3572302960335705e-7,-0.000001434979004595968,-0.000012484017822804289,0.00000662972836997683,0.000002384781444275585,-0.000005068539243640992,-0.000004124539431841499,-9.71467702481931e-7,0.000002252677633141541,0.000006788685320704894,0.000007706158868696485,0.000006680310500508867,0.000004021589276372043,0.0000036219639697538287,0.0000023508689109118427,2.9767148726375503e-7,-0.000007544505611512566,-0.000016908229572666898,-0.00000710769828058343,-0.0000034603270335024263,-0.0000026049719186830423,0.0000057214726140057625,2.0988050733228789e-7,-0.0000074624966008065664,0.000016272779704824488,0.000009639669374315581,0.000007628288191684494,-0.000006697931070074836,0.000013048714483670727,-7.316414849607462e-7,0.000004264639510639496,0.000009281827129806304,0.000017560834595943958,-0.000007883741350973244,-0.000006081861224363959,-0.000003050111376866938,0.0000016813749623870965,-5.744120063163681e-7,0.000010125040539583238,0.00000979832309463107,0.000001279491307916452,0.000012289157457182282,-0.00000902730766990813,-2.74976451732784e-7,-0.000009781980744655157,-0.000007705631780141618,0.000003296578197988592,-0.000004191982720051639,-0.000005214092810715944,-0.00000758923847623839,0.000006327649069133689,0.0000016907561472432063,-0.000001242970105104765,0.000010761153658271151,-0.0000021287365986480404,0.00001228364429616564,0.0000046516464843392826,-0.0000011411884216425052,0.000016844673210224417,0.00000979474779879162,-0.0000071490410989648886,0.00000671354356453247,0.000006087777873277832,0.000006708346308030063,-0.000005733244866456634,-0.0000024202042549951605,-0.0000027878516250758346,-0.0000063754134273634395,0.000011261854614076929,0.000011221221653341267,0.0000010559168207844736,-0.0000074159995550840214,0.0000018838491416727393,-0.000011396399019267344,0.0000024819502915377527,-0.000005313139250260452,-0.000006577158788603782,-0.0000014686254935259698,0.0000020065665015485228,0.000007004371207961808,-0.0000016037312355018807,0.000006749388880019954,0.0000025271720353510236,0.000005401939212033507,-0.000017659638100439998,0.000006670189132276081,0.0000020715965812181736,-0.000008450510342213598,-0.000005541024172200678,0.0000014168766550590798,0.000024604798359873457,-8.455694597706475e-7,-0.0000042040812818133425,-0.000002284323686840617,-0.0000012992563819092575,0.000008016031502688859,0.000008424901047817091,0.000004265994274225178,0.0000097752230024054,-0.000009899966985522448,-0.000011575841788354373,0.0000061669309375712476,0.0000059039776850308676,-0.000009976241882564463,5.600828509796224e-7,0.000008187444941362118,7.496893843654108e-7,0.00000465006746891355,-0.000004827069574924559,0.000011589150921856305,-0.0000049399885693762085,-0.000008661981979449634,-0.0000065408984696139055,0.000004978145975696247,0.000009897681186165056,0.0000013296798429820327,-0.000005198617479774063,0.000004862361080870205,0.0000158797592297613,-0.000013200483074849634,0.000006252421169252639,-0.000004763156319169697,0.0000038561464172620385,0.000020676929848378538,-7.306210775504704e-7,-0.00000484508933906731,0.0000033664040309967766,-0.000008730234599302034,0.0000037405707187252293,0.000008034385377165761,3.3509115758719715e-7,-0.000005203457409544198,0.00000950826985290131,-0.000012579356254579865,-7.157618675167064e-9,-0.000005764941900888931,-0.0000012441372455151396,0.00001154707699757406,9.661518964533868e-7,0.0000018925830689246318,-0.000002115401929486719,5.001901836588952e-7,-0.000013985352013023447,0.000004570364644062938,-0.000003284707202738734,-6.375719680340932e-7,0.00000823584809590889,0.000006900351814698566,-0.00001572637735637476,0.000014542015277732998,-0.0000019179245627436444,0.000001818781481180981,-8.565832174907224e-7,0.000004024590055331981,-5.134913203603441e-7,3.011415452393356e-7,0.000005219564000713179,0.000008864866489264253,0.000007578763822266265,0.00000481425566193912,0.000008066909415349169,-0.00000575508018826221,-0.0000016460848916754805,0.000006191118877067777,0.000008529363652192324,0.0000013990895857427248,-0.000003560231781964159,-0.000002278618185681561,0.000009673180215982693,0.000011961665909749988,0.0000015687649671851972,0.000005597087073694892,-0.0000068722694691257975,0.000007981681863005212,2.8735704251318016e-8,0.000008529537402929758,0.000011524272444126307,0.000005423675567156472,-2.4278990922261254e-8,0.000005944104986414369,0.0000043281300786583514,-0.000008647815435715034,0.000003747054385796678,0.000002491432090967926,-0.0000011784842140421487,-0.0000014096295195997864,0.0000032239645977548666,-0.000009262128518429303,-0.000002622258619880275,0.00000938204680131339,0.000007620754594636862,6.014515718948326e-7,0.000004200184392737651,-0.000007590600573358229,-0.000016841772237710112,0.0000026547974125004875,-0.000009613065191483655,0.000005703445243395562,-0.000006138422875925864,-0.12105556815807805,-0.13128085004880902,-0.13128881576393772,-0.13127893232508905,-0.13127308380205202,-0.13126988629024433,-0.1312625432855062,-0.13127879095605935,-0.1312756738210092,-0.13127701089197344,-0.1312943313821278,-0.13127040425575884,-0.13127589495935052,-0.1312835369057381,-0.13130095651588516,-0.1312771122936594,-0.13127390393136978,-0.13126958322017926,-0.13128685984331454,-0.13128323301677639,-0.13128392589006865,-0.13127388783093458,-0.13129475561580803,-0.13128062719719744,-0.13126876769367438,-0.13128863826384257,-0.13128265541586256,-0.13520513113478522,-0.12913839612341285,-0.12748160278396137,-0.12747625608928995,-0.1274796719217717,-0.12747026795870517,-0.12746462301696618,-0.12747307601116697,-0.12747496029447186,-0.1274513888868735,-0.12748594338841043,-0.12746729152033084,-0.12747396315868276,-0.1274753290571726,-0.12746568974406464,-0.1274287406471155,-0.12780063964138252,-0.12851782617737387,-0.12723812914765598,-0.1271094983921128,-0.1274763773323776,-0.12746993685557545,-0.12747339139719133,-0.12747273779773338,-0.12747132783322565,-0.1274808598656367,-0.12746355272478013,-0.12747447835760545,-0.15047000020336052,-0.12914361649661243,-0.1274737316379461,-0.12746123727973,-0.12748360422156746,-0.127482565448207,-0.12747915358896456,-0.12747772999474608,-0.12748606267605156,-0.12748280421933783,-0.12748075294320552,-0.12746461178544785,-0.12746197143894222,-0.13356104721665807,-0.12746994391129338,-0.12723969550568526,-0.12802309829751155,-0.1283376397742556,-0.12862835379886398,-0.12732941085320507,-0.12748682385575244,-0.1274635428986143,-0.12747406979965528,-0.12746756301153214,-0.1274805623585346,-0.12746406940708987,-0.1274712719810071,-0.12747358014085927,-0.15046157640655045,-0.12913985676887654,-0.12747367333874746,-0.12746681679185673,-0.12747081217156225,-0.12747919743814412,-0.12746628825884246,-0.1274702392387712,-0.12747683769990967,-0.12746882173297386,-0.127483390573135,-0.12749324842731988,-0.1493752978633202,-0.14932070909365955,-0.12699933249014897,-0.15802039155221112,-0.16083476187445697,-0.13044598447254535,-0.10165092141461596,-0.14517256817135074,-0.1459845775717014,-0.14275003864486602,-0.1274702334154732,-0.12746896208589373,-0.1274743865794641,-0.12746230518073506,-0.12746634664750434,-0.12748452598801147,-0.1504526728607235,-0.1291347449057055,-0.12746694272452175,-0.12746748471740554,-0.12747575809494727,-0.12747572691624542,-0.1274775216373228,-0.1327782271776605,-0.13859847908585834,-0.14099154688070795,-0.14250257199444358,-0.15719591101254599,-0.15959092568215902,-0.17565843082654856,-0.21734839214895135,-0.20670813028129298,-0.12465717817818699,-0.14756884905606185,-0.1461269291576199,-0.11746108755155961,-0.16799353421869442,-0.16834713668843673,-0.1330890682376789,-0.13290357930297178,-0.13201958967574853,-0.12911768558940057,-0.12748833800232823,-0.12747052451882018,-0.15047962523058886,-0.12913327463491903,-0.12747960281221862,-0.12747904743132746,-0.12746993975340237,-0.12748383608538444,-0.14386254500204237,-0.14604243876657455,-0.1466883875201772,-0.12089485074349253,-0.11280877792619969,-0.10157762844629094,-0.11621490715688379,-0.11245488921644257,-0.12050194735307175,-0.02288646102567868,-0.1401040405217651,-0.20122649981056878,-0.24790574070034704,-0.13638316592166388,-0.09519561091716881,-0.16029983659710315,-0.15167820759185202,-0.13583661115741327,-0.13405703563238186,-0.13015588723107077,-0.12748170450299517,-0.12748777772243194,-0.1504630132613473,-0.12912667547076365,-0.12746220147506793,-0.12747560127694504,-0.12747046648978802,-0.13931985177341683,-0.14662834236569502,-0.14502443145289604,-0.07110307638679304,-0.09192607062914986,-0.08097567105961051,-0.10919988505129859,-0.15190867474135258,-0.1752486294358117,-0.16968003986293276,-0.12711356095626003,-0.022369209940202608,-0.03345461442877605,-0.08231347234431444,-0.13904559335542782,-0.07112100138576835,-0.0603389564820574,-0.045464596153090536,-0.16762209315545906,-0.15381426593340194,-0.14311423780772875,-0.1361193736186358,-0.13669808725422164,-0.15050118146216745,-0.12912551446072562,-0.12746565366503784,-0.12748256425953544,-0.12747646830083947,-0.14054581369119068,-0.14930423212796737,-0.14034824365112336,-0.11150638563239022,-0.13587689456981975,-0.1258439766321513,-0.16305368810961546,-0.14255203323550775,-0.16297286006861003,-0.19881978697839692,-0.028316267543333946,0.02048587533745969,0.005468322710318117,0.005554653121630278,-0.029530739096729382,-0.06582426250805452,-0.10206437189586316,-0.040789635988122186,-0.03173630857080468,-0.15753560517394724,-0.1295545359288402,-0.1274812441630407,-0.12745920821020373,-0.14699597337329798,-0.12913009912554846,-0.1274685004764934,-0.12748273993595263,-0.12746545980481433,-0.12746747445367176,-0.12794987581459377,-0.1265293892516458,-0.06350170055253128,-0.10844528453987753,-0.12076688331846028,-0.07567762244628437,-0.10697733808734572,-0.09279322221233084,-0.1022166896792726,-0.14320019537385872,-0.04513461811001462,-0.08316953061522249,0.019366814473051636,-0.029494131179464374,-0.11598761813249038,-0.0672975282075243,0.0040082122178209546,-0.05176855306144549,-0.05596294902094014,-0.12842639529665908,-0.1274788231498459,-0.12746830019808209,-0.13744579068323406,-0.12911413481513725,-0.1274711828940713,-0.1274623573191671,-0.12747778944571794,-0.12747132959036864,-0.12780320493101027,-0.12691217796485538,-0.06440080838369026,-0.06279884585738592,-0.02592133288404637,-0.10263917213454357,-0.1139193662596243,-0.08447142851960872,-0.08884683542220813,-0.07498393307418844,-0.1962416289589759,-0.24141463626959783,-0.24129313121244356,-0.2450682514750895,-0.1969300230814279,-0.12516105470332214,0.024022299194811494,0.012240108039748863,-0.04815849496190305,-0.1276635420140001,-0.12746786476056318,-0.12748441452732404,-0.14904821198580753,-0.12912508857255456,-0.12748136904217652,-0.13782677280274058,-0.127467562309031,-0.12748752487382736,-0.1274756931116641,-0.12746413902313714,-0.02946923856235434,-0.04040420327066775,-0.009205654239362315,0.0019789367762603903,-0.05388081372229038,-0.07826660090915273,-0.1259121932730073,-0.19669665472030795,-0.30109779621045585,-0.31365518322246166,-0.35382672000070087,-0.29801887407284505,-0.24264804829172978,-0.18339640497123233,-0.01065880291775634,0.030748657025960958,-0.03340757347353391,-0.12748449001767093,-0.1274691947430815,-0.1274746174798898,-0.15047182554297786,-0.1291157630191635,-0.1274824564633682,-0.12748083896940915,-0.1349339853416869,-0.12747359861175364,-0.12748039614316056,-0.12049369688668655,-0.10178802099564227,-0.026771105173341934,0.05889747883841714,-0.05200250211888731,-0.08710531497622341,-0.1463971618004591,-0.284948221040995,-0.2727051033825006,-0.29400617323714956,-0.3604218041415301,-0.3391845054126869,-0.3296879796456296,-0.24185933884766095,-0.15028414559735978,-0.09668645522562924,0.04435605119550373,0.028210783241208646,-0.12746493486356716,-0.12746049211718954,-0.1274797021178206,-0.1504674896380046,-0.12911564658109306,-0.12745247879503907,-0.12747960987305412,-0.1274730514450724,-0.12748061379911949,-0.07344972313355023,-0.1870524054465717,-0.10975310827173688,-0.001972112907067826,0.06352051830004435,-0.06865190819490279,-0.18291569851999184,-0.297135599567235,-0.32465528994019466,-0.3217544220592805,-0.28983105091781636,-0.35251307454015623,-0.3495115852770585,-0.35172429067108224,-0.2446173903504554,-0.1202577874824646,-0.07304805742098035,0.05086206284860484,0.02270897828369828,-0.1275097456775903,-0.1274694496083838,-0.12747466301814697,-0.15046894687580445,-0.12912263287805925,-0.12747751481530084,-0.1274751460226143,-0.12746720582991275,-0.12746903869440607,-0.12954244642513485,-0.17255035911674138,-0.00047821935705478434,0.05399301652238509,0.0379399538396059,-0.10698158784401879,-0.2803842515418155,-0.3418493255126741,-0.3617454397470305,-0.3767291786919236,-0.37372277594894177,-0.36137689191240463,-0.34084479997843536,-0.352429246722529,-0.27361330059808725,-0.083594990201948,-0.01681848329544729,0.04429107811425272,-0.016082524117146113,-0.06944869031195745,-0.1274624086999925,-0.12748098030237598,-0.15047004827353355,-0.1291280289828097,-0.12747855270080607,-0.12748892736624612,-0.1274648102073482,-0.12930370074920416,-0.15646721865691626,-0.12034012674624595,0.03535100747698024,0.054064021974809334,-0.0071458993520078125,-0.24670369262363143,-0.2630351578413832,-0.3449040563424542,-0.3893471833053922,-0.4029999461234496,-0.4125624326372212,-0.348100391570289,-0.3473459924310639,-0.29180192095267415,-0.22027708084995173,-0.029896188424963287,-0.015440268534394508,0.020686011886438052,-0.06353707108016082,-0.06738456202884208,-0.1274736003293035,-0.1274735084008502,-0.15047403077015106,-0.1291220060211783,-0.12746951240889648,-0.1274700159931034,-0.12749761659694686,-0.1315479767758982,-0.1478524389870758,-0.05306002563242718,0.05394717425956216,0.05284679323666357,-0.08234504401133629,-0.30931433202568703,-0.2742243133851998,-0.3112968216215616,-0.3800177952529275,-0.40158666533852616,-0.3884453446721328,-0.388693768782435,-0.34629214525449753,-0.3036160859031337,-0.152516936317938,-0.01996289703385389,-0.07744313414580258,-0.03719904359608807,-0.09133797224651331,-0.10719621737420959,-0.127483882042964,-0.1274853559049255,-0.15047134775841864,-0.1291285788648696,-0.12747857913726765,-0.12747725759503578,-0.12788872044067268,-0.13460678234800696,-0.08537956409093246,-0.052000951566157486,0.11324911311959728,0.06412635756723291,-0.14862916767261494,-0.3129781962289395,-0.265900905312389,-0.29876893624875134,-0.3299015880493,-0.38287839541480717,-0.4068137872265256,-0.3376594427026205,-0.3575873483424613,-0.18954074547455402,-0.08587431538842878,-0.00689259894736578,-0.1235828266155651,-0.026365699773110995,-0.08456844756015948,-0.14692167205583953,-0.1274700699482742,-0.12746420883572485,-0.15045749212633636,-0.12913900233692382,-0.12747165549558143,-0.12747314944265103,-0.12871062400183095,-0.13576575509127123,-0.0398109793855281,-0.0022437679765297523,0.08075185883908959,-0.013539496237789538,-0.10750531817746471,-0.22621749977558162,-0.31657813409230146,-0.3330014436463131,-0.36715023809186165,-0.3813796426160449,-0.35229722741159275,-0.34740557239645,-0.17818694918537764,-0.09054264517015569,-0.043210851543397925,-0.09371875546344606,-0.02381461445621349,-0.04949334908623658,-0.06594773258372731,-0.1302605312360362,-0.12747689054015954,-0.12746702336588592,-0.15047423581467398,-0.1291181428536122,-0.12748766721825125,-0.12747008512271674,-0.1293896653809875,-0.1354176126730884,-0.03401512828928639,-0.0021527230540867187,0.014304767314933476,-0.0590983938255946,-0.11555798747844673,-0.17438200553813324,-0.3308023760258138,-0.3825901051537682,-0.3660336904001825,-0.3649618462594138,-0.24523865835989836,-0.16505616610871957,-0.12011228043337902,-0.1116676586568293,-0.1475436137441135,-0.13646982651949457,-0.011757996817619912,-0.04850399094957043,-0.05912815900927709,-0.1274708358863489,-0.12747312453499265,-0.12747406155543753,-0.15045893866921653,-0.12912319523518165,-0.127461242048147,-0.12747508517731013,-0.12916335698298578,-0.09555013466603983,-0.030184542716117802,0.0018068093757266453,-0.01851698881146176,-0.11111936884746093,-0.0889041549891746,-0.18499366429596914,-0.2384954134448514,-0.36420839898777896,-0.3062486104606634,-0.19367887161250197,-0.1385926763514408,-0.15511281862492426,-0.1735801808438148,-0.19708110594100733,-0.21543966606024126,-0.1249135630584098,-0.08449485900064807,-0.08436422558446469,-0.16192614040580822,-0.12747388568834725,-0.1274777271028518,-0.12747951367130292,-0.15045798384092143,-0.1291327554105558,-0.12747415798047124,-0.12746920213505147,-0.12817036131363546,-0.09205212585248097,-0.026555647451653952,0.0054015589733450034,-0.016294810063771422,-0.06760390794668093,-0.026866647992930724,-0.08480669290858259,-0.07966219820372389,-0.05060906530988463,-0.1097144881450748,-0.1345032571024544,-0.15251836618377795,-0.13573749319584133,-0.1959647774617187,-0.23986707027561294,-0.23536756169650416,-0.08186335564783245,-0.07935270599583033,-0.0855395488104086,-0.16292285627971828,-0.16273873617011306,-0.1274735887837692,-0.12746721380317982,-0.1504629896947902,-0.12912780989821726,-0.12746498241722518,-0.12747594267143272,-0.1274820710025507,-0.12747002076292208,-0.07271143554157278,-0.017086928261881282,-0.0025874508836147784,-0.03609139844914174,-0.061416497891709075,-0.03700576997136674,-0.02294514379626921,-0.005336431729657753,-0.049721653398820856,-0.1902975496672089,-0.1595422519755271,-0.2709708974441724,-0.32003817219862857,-0.217151154910394,-0.06754751047835007,-0.05177870932621735,-0.05421780583512027,-0.11549410804709292,-0.1274995993366619,-0.1274615727511436,-0.12747717265716574,-0.127462599608537,-0.15045820429360068,-0.12913942585510063,-0.1274653445049129,-0.1274726763773205,-0.12747367835289417,-0.1274662545423503,-0.12747603956357859,-0.07315325482944154,-0.06962651398971852,-0.08621866578155518,-0.13231843313170719,-0.1664558719103993,-0.05080800127336056,-0.004935943719973693,-0.08239149259899307,-0.19666489376035917,-0.19259013337110809,-0.08418960769661608,-0.08677952597617787,-0.07184175398466879,-0.05745238907349128,-0.05219264512583246,-0.1394681970641247,-0.12747171452994538,-0.12748068758711567,-0.1274623488412101,-0.12746178250093085,-0.1274730917390056,-0.15047445999209572,-0.12912389342786734,-0.12747833170076125,-0.1274852136786048,-0.12746463061868676,-0.1274735658371305,-0.12747796438912662,-0.1275439354940259,-0.1447479833156069,-0.1275581558977681,-0.15609856750221326,-0.1706955659743328,-0.2565595979293268,-0.23399832002711682,-0.1475858648241532,-0.10816930062707693,-0.09838813333711771,-0.04978262359228293,-0.049661905284323654,-0.06441777276249676,-0.05645321594871136,-0.12486242894046368,-0.12753999847020778,-0.12748851059714303,-0.127476834812114,-0.12747296734455402,-0.1274864782723055,-0.12747723284633902,-0.15048180925884044,-0.1291380378877032,-0.12748358215589284,-0.12746241500163324,-0.12746721352413642,-0.12748484806462135,-0.12748595361457737,-0.12728779978742102,-0.15849148980603017,-0.1735372334063001,-0.22622301393094538,-0.16564546045655443,-0.13284552564318466,-0.12782514124958388,-0.19890190400437854,-0.15746261181667376,-0.06786903982672252,-0.04945794394926707,-0.04871729330930769,-0.060325622891986196,-0.15847304751503274,-0.1275074119296308,-0.12747174232661942,-0.12747488339522567,-0.1274717002801237,-0.1274609571748037,-0.12747499731822157,-0.1274808198834724,-0.15045902993203422,-0.1291433353278478,-0.12748149314158352,-0.1274643006776422,-0.1274663497474591,-0.12748590281892538,-0.12746592155382486,-0.127474868160607,-0.15845371956888507,-0.19246425717382348,-0.15729405226331328,-0.12297996989764697,-0.11798072929241023,-0.10999667892814137,-0.10991766287651727,-0.11674073608986342,-0.12425874725703456,-0.12651448075444174,-0.12748623329475975,-0.12751834915657545,-0.14079047826741578,-0.12746457152101628,-0.1274731231938827,-0.1274759839507586,-0.12747236242935647,-0.1274731513730512,-0.12747217673689504,-0.12748125421422177,-0.15046406886164984,-0.1291300833220404,-0.1274679964927555,-0.12747563280573954,-0.12746901623286178,-0.12747373360287126,-0.12748184686288305,-0.12746946297385942,-0.12748429771153993,-0.1274792182780029,-0.12752083296400854,-0.127842423377136,-0.1266112363611871,-0.12301576117060907,-0.12290133888911543,-0.12639790139937834,-0.12748508856241808,-0.12747252294403721,-0.1274804225656657,-0.12749050885835445,-0.1274729240706947,-0.127470544658801,-0.12746306141225325,-0.127462708203581,-0.12747517473608566,-0.1274730952042219,-0.127480666637846,-0.1274615722324919,-0.15046780829113235,-0.13404461841538357,-0.1524569063754217,-0.1524592054117831,-0.15243943988719558,-0.15245843945265286,-0.15245893004548136,-0.1524447065782472,-0.15245121276013818,-0.15245002188654788,-0.15246454001588883,-0.1524631196820358,-0.1524555364901355,-0.15245499265169193,-0.1541999580071663,-0.14861927166851233,-0.14271417665134115,-0.14274117439409723,-0.14274394553818895,-0.15243571842248557,-0.15244812898067225,-0.1524431319982377,-0.15245744319454613,-0.15245241361297038,-0.15245899292368378,-0.1524627838024512,-0.15244441054057517,-0.152468827888253,-0.15827098946816784,0.000013460257929924906,8.003446456783967e-7,0.0000032278729789305327,0.000011543736917152645,-0.0000034973510548452384,-0.0000014929154630220076,-8.940438409741059e-8,-0.000006065252290856982,0.000008250033313853379,3.9755085146442327e-7,-0.00000460648256420486,-0.000004027006524723736,0.0000035043090948097828,-0.000005541938325128642,-0.000007636049432339565,-0.000013339342557342164,0.000007257876319935665,-0.0000031542304119598722,0.0000013478770025824968,0.0000011188431489460429,-0.000007082446498398898,2.6234791294832873e-7,-0.000002278488708735812,-0.000014529483791406197,-0.000005523619563862918,-0.000006551857229314911,0.000003199612922679242,0.0000050627637910243,-0.000007041003937340755,4.078657335485805e-8,9.833734679038428e-7,0.0000038000374854921303,-0.000007394512148177895,-0.000011446103833984,0.0000156319476702375,0.0000035270694138636034,-0.000019967308942546906,-0.0000025857821817931696,0.0000057026654959171126,-0.000006395933237246165,-0.0000040516706264824594,0.000002814196872046523,-0.000015067429354972326,0.000012116559363291977,-9.61283889883069e-7,0.000009824972834678264,0.00001200939879987968,0.000003552325695064845,0.000004904806029139022,-0.000005205159746576746,0.000011914047804981578,-0.000008428607951649013,-0.000010691286057660027,-0.000017809675241666494,0.000005540306843463827,-3.0047661613929945e-7,-0.0000048480165859893424,8.596640723549565e-7,-0.0000031289749348577157,-0.000006318970505456435,-0.0000014438751955298608,-0.000009326819369953016,-0.0000016854501462509515,1.5864060046933739e-7,0.000007040777257225106,0.00000929780526084199,-0.000010845398976961304,-0.000004682550831656163,-0.00001343147584625025,0.0000010516567637920554,0.000004409169471211638,-0.00000883888773629691,0.000007491644749020089,0.000008100109118060714,0.000017118242593951774,-0.000010398453875846193,-0.000002297319498232964,0.00000564449288840313,-0.000009307822196300696,0.000004285792685506022,0.000015791785727416587,0.000003763050284116447,0.0000054609583750513744,-0.0000025290314030135643,0.0000016907104863171314,-0.000002720136792555823,0.000010930480690733302,-0.000010389092019134247,-0.0000025429172962228327,-0.000013472674667432468,0.0000049869038748909575,-0.000004738132219577259,-0.000006258876785798787,4.483802178558711e-7,0.00001065433375588338,-0.0000034839476257394027,0.0000010667533974858947,-0.0000029454635390550016,-0.000017105584961012246,-0.000008388676873783107,0.000008370426958600026,0.0000034290279578033457,-0.000017606802298599918,-0.0000023473802701406705,-0.000010976034379094852,0.0000057363087294594665,-0.000014851045124850902,-0.0000037380014193909737,-0.000004073477962882847,-0.000008856410413653254,0.00001130846391822647,-0.000010190193451886342,0.000009555872189991516,0.000021757368039291516,-0.000010114608009158264,0.000004106019487630492,0.000002931893915747008,-0.00001632821366714718,-0.000006919718071607985,0.000014733872928097178,-0.0000028496335418301294,0.000017484611090918408,-0.00000676502958229601,0.0000013436516094485624,-0.00001343986902152149,0.0000025152380507050603,0.0000041741360716207655,-0.000007015542089827913,-0.0000013618423813330986,0.00000768779576846612,0.00000619817495496866,0.000008680506792523173,-0.000003771581294349815,-0.00002040891202542715,1.5287594765208193e-7,0.0000033254297557600782,-0.000004131253639333209,-0.0000031243551853000962,-0.0000035369631807838807,-0.000007209539611854384,-7.177892011776623e-7,-0.000016655476732612936,-0.00000784409232375205,-0.000002145736383064244,-0.000004414358250883779,-0.0000057545939823236194,0.0000019145314794421775,-0.000006192642879930201,0.000005258278191868518,-8.870530574499898e-7,-0.000006526449849709084,-0.000010847990682930818,-0.000008860027156377737,0.0000036610950956253967,-0.000012794777297034697,-0.000008733858443345694,-0.000006645031451441914,0.000003938758603728717,0.0000041380770429771505,-0.000005699565594001135,-0.000001191263044857233,-0.000009148232843071187,0.0000022500073564122057,7.353217178592586e-7,0.000010204190755381791,0.000005586092924367426,-0.000007363487771555597,0.000004729714495201238,0.000007967399874029437,-0.000008226397372588504,-4.0499449958329865e-8,0.000003819684100408449,0.0000022554912608029367,0.000003255139976135144,0.000010487803916062027,0.000010865818356029523,0.0000035775770719552463,0.000010043782186869666,0.000007473195509971186,0.000001711097577703649,0.000003863653539810599,-0.000009488189404542995,-0.00000642033361173444,0.000002105942168207245,-0.000009737744174520682,-0.000006830725129711564,-0.000004662696541885766,8.877896106660611e-7,0.000006969221437990177,-0.000003764983473474093,-5.955500223695473e-7,0.000004752332317480133,-0.0000041574973032525815,0.00000186744788732454,-0.000007941937788806575,-6.203977083342317e-7,0.000010455726930545398,0.000001843765267328821,0.000006754322635439399,-0.000011749291298184354,-0.000002835136588704759,-0.000007432812594279601,0.000017068777703576597,-0.000009220049150817239,-0.0000024780562471464103,0.000007434228037650538,-0.000007140662746771218,-0.000003851191817231966,-0.000020050850341654667,0.000011721686982342642,0.000003826814089009727,0.000001916373623775011,0.00000495713638610904,-0.000009145631696508522,0.000005757383664639016,0.000005503377026639422,0.000008654783313664258,-0.000002633513038639947,6.588698373040974e-7,-0.000016452908820158304,-0.00001088831778984776,-0.0000013124419343904896,0.00000270333262212456,-0.0000024631034898284025,-0.0000051018749238136785,-0.000006031814956475221,-0.000012443799836818297,-0.000002921406091558792,0.000016801706492700483,-7.967495121007719e-7,0.0000051316673865392606,-0.000006348319370864385,0.0000037775474177977257,9.182965462242527e-7,-5.103640935575261e-7,0.000012158619903670721,0.0000015477964882876486,0.000009267422157500082,0.000002119027482263179,0.000007966615047520912,0.0000013849291945739545,-0.0000244728706329706,-0.000005605686618020413,-0.00001906857784969661,0.000001062826810162036,0.0000035212744224545922,-6.456247978518154e-7,-0.000003498348036010231,0.000010794531382139268,0.0000072880465767399814,-0.000012377406729015053,1.6867268710374602e-7,-1.2722077835825985e-7,0.00001596706162413008,-0.000008893168565427995,0.000002234598717390633,0.000008077670594147485,0.000004842872687142458,-0.0000011701963648962354,-0.000014259978832320368,-0.000005858704187011148,0.0000027242682980694515,0.000003563702365410171,-0.000012708091922299165,0.000001327397007414247,0.000008537163168905016,-0.0000018333160008564713,0.000005014033621464021,-0.000006612911835092967,-0.00000719605882284278,-0.000005489075025219271,0.000002781035896442712,-0.000008432173595689828,-0.000008016529880711839,0.000004550437465155498,-0.000012920943722326527,9.498256184948934e-7,0.00000444227178239011,-0.0000032744682121777563,-0.000006791639029884608,0.0000010414741212945978,0.000003109204025095413,-8.454705028134981e-7,-0.000013456967610438749,0.000002050735473602725,-0.000017551971414947595,-0.000005912207994658269,-0.0000024537949357373744,1.8407140087593345e-7,-0.000013055994980803856,0.000016861047899689708,-0.000007685880391873033,-0.000010542811069018791,-0.000005049440477622549,-0.000005457562136657043,-8.891130022476578e-7,0.000006452558606265676,0.000003096719445228068,-0.000015225246331015755,-0.000015261552087685788,4.2414344935557845e-7,1.3045853417324632e-7,0.000007343306265253944,0.00001093464113272201,-0.0000028694292749404807,0.000007878430804864772,-0.0000031545227980929144,0.000011643152339769163,-0.000005425782272289941,0.0000013309401845058401,0.000003929422093039789,0.000006694068438402557,0.000008953973083584575,0.0000061581683681840274,-0.00001862651805705978,-0.000004931873934156408,-0.000008046889746428316,-0.000001478482027161939,-0.000008430365568484822,0.0000020069751857932575,4.0757919155068955e-7,0.000004677334282960541,0.000012428171462825699,0.000003210494322603896,-0.000011458318776335621,-0.000003824388547458883,-0.0000010212331553785345,-0.0000011630617756371435,-0.000009610047632614076,-0.000008134665948883378,0.000003146422950954565,-0.00000584978669529793,-0.000001682898070597107,-0.000011257350771375133,-0.000011147786325079372,-0.000008648376042696369,0.000009270372807522228,-5.375754242383346e-7,-0.000005822216560547377,-0.000010249711136160446,0.00001047240276165119,0.0000010737596065654108,-0.00001080717035672741,-0.0000014364787155056938,-1.7885791872678648e-7,-0.000004895212907430023,-0.000008668813492898312,0.00002564411745874052,-0.0000028867690308418924,-0.000011932268644437393,9.383831997523413e-7,-7.580148532840741e-7,0.00000493624810123111,0.000003702767893470411,0.000004626309894281873,0.000010178172798301531,0.0000036728842916380135,-0.000009237421068823419,-0.000003010493953198644,0.00000439999114549397,0.0000025417597755351794,0.000010389708449263338,-4.888467563827882e-7,-0.000008982887349055394,0.0000047497712129667085,0.000013043436242000282,-0.000003511206261209366,4.490194767187752e-7,-0.000003870045822723576,0.000003870947556655774,-0.0000016553275441406261,-0.000004561247580759997,-0.000002939371424653933,-0.000001466028820862177,5.549369268503907e-7,0.00002775747860252763,-0.000010899761060422116,-0.000004983382903244296,-0.000007903198119577535,-3.55525281006689e-7,1.6860603778386075e-7,8.673394178369813e-7,-0.000009105523141378295,0.000004003811062862235,0.000013486465294552361,-0.000007441019284992067,3.682738827877991e-7,0.000008911756264818132,-0.000007004374949192761,0.000008119314131873567,0.000010058863556183812,-0.000007718677083177178,-0.0000016345560725672858,-0.000006551233572415125,-0.000009490363788235471,0.000009501866662101511,-0.000007874361865170007,0.000002347365719705965,0.0000046939748260166,-0.0000030124811914253304,0.0000036121745470109725,0.000004791103335385079,0.000015697098218145557,0.00000997218691421782,-0.000002588614844590734,5.342467419109821e-7,0.0000027114636265499046,0.000005154584530940053,0.0000022090244160895047,6.915086074926449e-7,-0.0000030589742029473997,0.000009568066101806888,-0.000004919585928459546,-0.000004734897605746534,0.0000027165257527635316,-0.000014639412404005344,0.000006647718437215197,0.000006508102947348168,0.0000027473714542672577,-8.959237949505455e-9,0.0000025821932711373467,0.000008691416570200976,0.000004657313939433746,-0.00000488987104195556,-0.000011261416802938425,-0.000005571047859062695,-0.000006482140207941854,0.000008838641089175457,-0.0000060970139356748494,4.2348517783591746e-7,-3.4462349891436244e-7,0.00000973608519483553,-0.0000038789693072781955,-0.0000035870054798212008,-0.0000035063234717694404,-0.0000034702249586408795,0.000004438895579179246,0.000003503124959257072,0.000010290499927815779,0.000006557363733058029,0.000019374926614690872,-0.0000014564370432968884,0.00000873432981369679,0.000004282347648557039,-0.0000042095098696126295,-0.000006516088220661548,0.000003491298586286394,-0.0000033248478741498945,0.000004632645063201694,-0.0000014905612753913178,-0.0000054498797555779,0.0000035263701914103843,-0.00000501214713740562,0.000009863705096730135,0.000003068670643227503,-4.0195233019801227e-7,-0.0000026125801124704883,0.0000024688402160581198,-0.000006831738095018717,0.0000016795679986625447,-0.000008070510412238422,0.000001033383930999248,0.000005848455195824807,0.000008552502217958093,0.000012661001989348439,-0.000015814827435890605,-0.00000843105337162535,0.00000283279135538965,-0.000003069601502679524,-0.0000059008992029806956,0.000004927971721161706,0.000014425198501202302,0.0000030366470113663835,0.000007074663685278416,-0.000006744211685736385,-0.0000015200137869179716,-0.00001365831445123786,0.000004856633126090939,-0.0000028599654217307857,-0.000012259961060899485,-3.9720182973351285e-7,-0.000015134467007220456,-0.000008057422323537741,0.000011042813076801171,-0.000010586638838283593,0.000005702934637881638,0.000002325473871646294,-0.000010633174765032178,0.000001199010778704143,0.000005140198689259429,-0.000007310903212099557,-0.000010659636206429069,0.0000035158188900171024,-0.00001442923486709716,-0.000004725571507562179,0.0000018977732195412486,0.000004163204336651359,-0.00001581028621830492,0.000006249653265974122,-0.0000030122240685731823,-9.881140896445068e-7,-0.000006656073666937794,-0.000010006296669141102,0.000007211470325021603,-0.000009483288678609124,0.0000019285302549347242,-0.000010784800599611251,-3.4641445969981605e-7,0.000007178050396808783,-0.0000011579534837072627,-0.000016915009892607705,0.000013495003086572212,0.000009472178279259028,-0.0000022090245577127524,-0.0000026695860345364147,0.0000046720983499869335,8.006756587587068e-7,0.00001402450225004516,0.000009143103353126659,-0.0000037455948131681406,-0.0000017654754525077558,0.0000025893447417377703,-0.000013950099413261035,0.000003393155108760659,0.0000011338320018555056,-0.000005684070624680562,-0.0000014722305204832344,0.000002610538111359139,0.000004498391740573799,0.000007870389470552377,0.000006880789587173388,-0.000007489112027682791,-0.000009520785388200093,0.000009241253567680128,-0.000015519480415196596,0.000010125881603678275,-3.356020149960687e-7,-0.000011000473344978823,0.000024327215610401867,0.00000973032499469473,0.000005309617918965172,-0.0000022039843479552953,-8.429903278998416e-9,0.0000020990454524783986,0.0000019074740463161792,-0.000008911034803321332,-0.0000026046111871662934,0.000002792865756771453,0.000009038446922908431,9.237044440530503e-7,0.000006399391066616599,9.647066446070105e-7,-0.000012235200074865886,0.000011403925200925659,-0.00001134895910672831,-0.000006122493160038483,-0.000004111701142895703,-0.0000016663170565985417,-0.0000054473617994336645,-0.00001121106869419187,-0.00001720479593387602,-5.113407894370429e-7,-0.0000012660924063959297,-6.274011361487516e-7,-0.000003140907368556801,0.0000021626408792292304,-0.0000041098847077049634,0.000007533457402652992,0.000019008606259076654,0.0000071064943394038555,-0.0000020480467653623715,0.0000018425479612597039,0.0000046887685887831005,-0.000007323806336118224,-0.000011178839888236537,0.000003614998109149733,0.00000596973278587018,0.0000025107524685025854,0.0000024909347968956414,-0.0000028383553307118975,0.0000034379798518135576,0.000007351354296448895,0.000011802689213875602,-0.000009085096935816775,-0.0000027204058497817476,0.000004398047364670838,-0.000002321631436026354,0.000001545084431763162,0.0000019223545148940183,0.00000919665914933776,-0.000008144634807741077,-0.000006166597531059954,0.000008167240545594385,-0.000012099030864749025,-0.000006935465100458052,0.000010107165178130202,0.000004623418966988359,-0.000003716496405083695,0.000012665428352369625,0.000012393108432823989,0.000004043073807844412,-0.0000018529281740874818,-0.000005880979585398012,-0.0000016519199213310331,0.000002174562072909544,-0.000010996925596196793,0.000015924969122293705,0.000004389949738494941,0.000003351994441636478,-0.00001135230130137813,-0.000004676922353855305,-0.000007651987430570994,-0.000008961655944315612,-0.000004822557502318872,-0.000011556628030907084,-0.000017481143919539383,-0.0000029042649633990922,0.000005151030316263069,0.000006406679065939323,0.000009733973741207536,-0.000009708236551323488,0.000005762851316765561,-0.0000045218699014753335,-0.0000055209989136939656,1.3122475181050122e-7,0.000004551305637801187,-0.00000333586231433887,0.000007851198466936758,0.000004606859060522973,0.000017741926097072227,-0.000012483238501034569,0.0000033250466300012175,0.000008054365362657903,0.0000034712799536982844,0.000006725163637386055,0.0000051645987738704375,0.000013425639598511968,-0.000005823051917702269,0.00000328405117797374,-0.0000073231631283802624,-0.00000575452212506242,-0.000006035725419093343,-0.000005753453296834562,0.0000036077646497673924,8.75516754772148e-7,0.000006066064645282842,-9.116276624229163e-7,0.000008247592006296621,0.000006141898609403038,-0.000010667727382671567,-0.000008986194886822981,0.000011786296019233074,-0.000010540766965132021,0.000010106448434714039,-0.0000022794553342689325,0.000005983005536302602,-0.0000023543288925367676,-0.000008338969127152821,-0.0000031555700556931413,-0.0000027863082359589817,0.00000691518096517898,0.000014980411467650664,0.0000021367478009398398,-0.000004294740833975083,-0.000007053927959707831,0.000006632283601736103,-0.000006574590778148652,-0.000008469432740822381,-0.000005898405664614516,-0.0000063320391502011505,-0.0000018764259744266993,0.000001837043797467704,-0.000004345680424919544,6.117872493492268e-7,-0.0000012585908070546068,-0.000014093492765311867,0.000009657217688159107,-0.0000017393410310622615,-4.2538624128130684e-7,-0.000022240955744252455,0.0000045027973060074036,-0.000012955967196544453,-0.000003852903071834801,-0.000023373754765994375,-0.0000037101389752137482,-0.0000021645121011871608,0.0000033866054338674397,0.000008628875952304255,-0.0000015918639406799794,-0.000005220950314851784,-0.00001517331311898179,0.000005683286338690107,-0.0000024175846323147885,-0.000006061733750346794,0.000010057500844939256,-0.000009977253351992454,-0.000010149666926912565,-0.000010482677548424417,-0.000003813875403053358,-0.0000030114776599037285,-9.916199798199513e-7,-0.000014938693734557516,-0.000003379679139372698,-0.000006076882858916091,0.000010762856642518707,0.0000013817683995044652,-0.000001399319846182195,-0.000011508123857947274,2.7205153947183634e-7,-0.000008883885365698832,-0.000009509431845722398,-0.0000022716082097620955,-0.000003820436616602239,0.000007206802701696374,-0.0000032440330857841435,-0.000014284705330810094,-0.0000040471939097660776,-0.000010803251276523814,-0.000006668370899571876,0.000005751009233430603,0.0000030873888815943745,0.000004413142928635449,0.000003926636664701387,0.0000021125768134167368,-0.0000043055416596443,0.0000064570961735283935,0.0000036447273860549267,-0.00000881589779051671,-0.000014891256399689866,-0.000013013917818552266,0.000008581548557077634,0.000009661441692311394,-0.000012468275328794757,0.000004238079807893256,0.000005039001437170418,0.00000540199518636339,0.00001692487189919902,-0.000017040039916010905,0.000007382449618836847,0.000009289643540304222,-0.0000058816019326357156,-0.000001129512787698817,-0.0000014623731187456438,0.0000051325187724983615,0.000005155958760494081,0.0000020331765264937025,0.000007679676113506463,0.0000010186142457410238,-0.0000016285975089505254,-0.000008285049330466117,0.000010268706850461735,0.000017065431796262405,-0.0000034930203859298003,0.000002506166167458498,0.0000013325805715598145,0.0000036304628282046187,-0.000002895098907074123,-9.513541171476101e-7,0.00000575320282160998,0.000003533075171682447,-0.000004565634919394602,-0.0000044399028838497215,-0.00001054708244949833,-0.000001333858528947476,-0.000009867072069571431,0.00000929313898764366,-0.0000050428341693510655,0.0000016776846737482198,-0.000010794024984575844,0.0000011746447555966458,0.00000228014931303658,-0.000016661682730321996,0.000014978345601177774,0.0000010907785683684148,-4.525333380859816e-7,-0.000002494661729406952,0.000007834793329144795,0.0000044222946916573335,0.0000013836173629379967,0.000007802284831267277,-0.000011255942597296003,-0.000010628479455470005,-0.000007398037201926174,0.000005938684183898316,-0.04329119300310578,-0.04328571324357686,-0.043283739574944725,-0.043283871247640576,-0.04327634894438659,-0.043295129201535575,-0.043283354769955026,-0.04328004408052605,-0.043282718889660565,-0.043287732213560075,-0.043293856038205014,-0.04330261159351351,-0.0432958113792673,-0.04327253773436821,-0.04328527726598327,-0.04330397329078338,-0.04328437575682572,-0.0432817887784347,-0.04327117017024792,-0.04330712550482019,-0.04327535964975219,-0.04329205652481699,-0.0432841925146752,-0.04329987281966964,-0.04329709725508686,-0.04329050271639395,-0.043276010819841386,-0.060508971903902795,-0.04329614317524904,-0.04329786863266265,-0.04328121543367561,-0.04329024787922787,-0.04329447176036579,-0.04329141353246909,-0.04327890521096814,-0.04327616184600762,-0.04329243210159839,-0.043280383713558294,-0.04327923766391173,-0.04326427708651378,-0.04328334557531586,-0.043278414521066615,-0.04328613843060042,0.000011934715326999128,-0.000004527394763035491,0.0000071178010552309215,-7.520532296381544e-7,-0.04328486202998931,-0.043288508275419,-0.043293523978203505,-0.043274018664766004,-0.043281789865673694,-0.04328801059467537,-0.04329718388549251,-0.04329556366109628,-0.06198252395610406,-0.04329780653393829,-0.04329280816387413,-0.04330011775168435,-0.04330066830554251,-0.04329348711721316,-0.04328295609002013,-0.043279393150778916,-0.043291899981857375,-0.04328358190970984,-0.043291369899086676,-0.043295197510169144,-0.043288140808757126,-0.043290484698296446,-0.04328325695524263,0.00001500226875706172,-0.00000709645805219149,-0.000009951194377983107,0.00000284451501536092,-0.0000012492082696787481,-0.04328863295449449,-0.043281048439486255,-0.04328921333138564,-0.04329729525947633,-0.04328991553814807,-0.043287223740103555,-0.043291658775785787,-0.04329140409626927,-0.0619815470389569,-0.043282889201097734,-0.04329256837460159,-0.04327146105525361,-0.04329099800091329,-0.04329203932404817,-0.04330378867483221,-0.043290847380716625,-0.04329510675546798,-0.04328100201693904,-0.047947432325220744,-0.04794332248779263,-0.04813950456065713,-0.0433585336867065,-0.000004330409479102879,-0.000004843485307011841,-0.0000021195261460910577,-0.000002162139926988354,-0.04328695833791244,-0.043295951782274814,-0.04328857569949288,-0.043281182967709275,-0.04327600237820119,-0.043288505880833876,-0.04328967780576552,-0.04329301142524772,-0.043287613604499765,-0.043282584193461676,-0.06197308003102082,-0.043274068699898555,-0.04328355489203491,-0.04329740304370018,-0.04329914761043236,-0.04328728926312299,-0.04328121857210967,-0.04328242891063085,-0.04329252336533668,-0.04329063306588407,-0.04328770589117849,0.010256568166201137,-0.04328856431219422,-0.000010297376718519558,-0.000004104556998750099,0.0000034093351592633873,0.000016760680787883243,-0.043283468291303986,-0.04327671440072551,-0.04327751614606012,-0.043288122281241306,-0.0641598606987891,-0.04328879161404557,-0.043303821040094184,-0.04328074316093319,-0.043294880739342796,-0.0432934940649097,-0.04328782058306081,-0.06197196385620924,-0.043288514130161986,-0.043289768564658486,-0.04329315252282168,-0.04328550081005956,-0.04328766161874463,-0.04328959033732512,-0.04329894611683953,-0.043282098481042176,-0.04329084186034607,-0.06312579082088633,-0.04960340290020614,-0.04328995790615467,0.000004661564847506117,0.000006381449855091008,-0.037874480732323655,0.0013184428143247435,-0.03974259177625974,-0.04328195269229631,-0.043278878827251725,-0.06458446059469818,-0.0646014041221685,-0.04327810254772355,-0.04329749756087673,-0.04329821724792994,